{"learner":{"attributes":{"best_iteration":"43","best_score":"2.431546306709519","scikit_learn":"{\"_estimator_type\": \"regressor\"}"},"feature_names":["Baseline_Wind","Pressure_Gradient","Thermal_Delta","Hour_of_Day","Month","Wind_Direction","Temperature","Wind_Gust_Baseline","Is_Thermal_Window","Wind_Dir_Sin","Wind_Dir_Cos","Hour_Sin","Hour_Cos","HRRR_Temp","Temp_Model_Delta"],"feature_types":["float","float","float","int","int","int","float","float","int","float","float","float","float","float","float"],"gradient_booster":{"model":{"cats":{"enc":[],"feature_segments":[],"sorted_idx":[]},"gbtree_model_param":{"num_parallel_tree":"1","num_trees":"74"},"iteration_indptr":[0,1,2,3,4,5,6,7,8,9,10,11,12,13,14,15,16,17,18,19,20,21,22,23,24,25,26,27,28,29,30,31,32,33,34,35,36,37,38,39,40,41,42,43,44,45,46,47,48,49,50,51,52,53,54,55,56,57,58,59,60,61,62,63,64,65,66,67,68,69,70,71,72,73,74],"tree_info":[0,0,0,0,0,0,0,0,0,0,0,0,0,0,0,0,0,0,0,0,0,0,0,0,0,0,0,0,0,0,0,0,0,0,0,0,0,0,0,0,0,0,0,0,0,0,0,0,0,0,0,0,0,0,0,0,0,0,0,0,0,0,0,0,0,0,0,0,0,0,0,0,0,0],"trees":[{"base_weights":[-8.096694E-3,1.7384523E0,-5.961551E0,2.9393232E0,9.166052E-2,-4.254809E0,-1.0823964E1,3.8423364E0,2.2660346E0,7.735923E-1,-9.564479E-1,-3.0389884E0,-5.8881893E0,-9.594676E0,-1.6102638E1,2.9139028E0,4.2864566E0,1.5878973E0,2.90816E0,7.531099E-2,1.1415838E0,-2.657509E0,-7.470418E-1,-2.553863E0,-3.8735058E0,-5.1144657E0,-6.5820823E0,-8.369303E0,-1.0530063E1,-7.5323915E-1,-1.0945448E0,2.6808755E0,3.7833726E0,3.0882034E0,4.397816E0,1.2481971E0,2.0016568E0,2.7267084E0,4.698175E0,-4.4170517E-1,9.244196E-1,1.805408E0,6.6419065E-1,-3.0245874E0,-9.1078377E-1,-5.153962E-1,-1.7431567E0,-2.8349726E0,-8.4217006E-1,-2.8070536E0,-4.554034E0,-5.5556517E0,-4.1911106E0,-6.6977696E0,-5.976728E-3,-8.777923E0,-6.9175177E0,-1.110833E1,-8.555188E0,1.5596296E-1,1.2175862E-1,2.6657718E-1,1.7374027E-1,1.4137812E-1,2.1528636E-1,2.4684663E-1,2.0805453E-1,7.926134E-2,4.4859648E-2,1.1790957E-1,7.660126E-2,1.2448559E-1,1.729677E-1,2.0843475E-1,6.112455E-1,-2.566402E-2,7.76775E-2,1.0915285E-1,3.1459406E-2,8.175944E-2,1.5893427E-1,1.8531466E-2,1.010183E-1,-1.11981235E-1,-1.8880634E-1,-7.4736975E-2,1.388743E-2,-5.762859E-3,-5.6821954E-2,-6.743654E-2,-1.3510084E-1,-1.4988375E-1,-6.1070096E-2,1.3067916E-1,-5.569631E-2,-1.8519336E-1,-1.0510812E-1,-2.5944042E-1,-1.992648E-1,-2.907608E-1,-1.4665997E-1,-3.0378458E-1,-1.909677E-1,-2.9772708E-1,-3.7653342E-1,-4.9405843E-1,-3.9215875E-1,-1.9780144E-1,-3.6760414E-1,-5.0881433E-1,-5.8713716E-1,-2.8114733E-1,-4.5812503E-1],"categories":[],"categories_nodes":[],"categories_segments":[],"categories_sizes":[],"default_left":[0,0,0,0,0,0,0,0,0,0,0,0,0,0,0,0,0,0,0,0,0,0,0,0,0,0,0,0,0,0,0,0,0,0,0,0,0,0,0,0,0,0,0,0,0,0,0,0,0,0,0,0,0,0,0,0,0,0,0,0,0,0,0,0,0,0,0,0,0,0,0,0,0,0,0,0,0,0,0,0,0,0,0,0,0,0,0,0,0,0,0,0,0,0,0,0,0,0,0,0,0,0,0,0,0,0,0,0,0,0,0,0,0],"id":0,"left_children":[1,3,5,7,9,11,13,15,17,19,21,23,25,27,29,31,33,35,37,39,41,43,45,47,49,51,53,55,57,-1,-1,59,61,63,65,67,69,71,73,75,77,79,81,83,85,87,89,91,93,95,97,99,101,103,-1,105,107,109,111,-1,-1,-1,-1,-1,-1,-1,-1,-1,-1,-1,-1,-1,-1,-1,-1,-1,-1,-1,-1,-1,-1,-1,-1,-1,-1,-1,-1,-1,-1,-1,-1,-1,-1,-1,-1,-1,-1,-1,-1,-1,-1,-1,-1,-1,-1,-1,-1,-1,-1,-1,-1,-1,-1],"loss_changes":[1.257434E5,1.8489844E4,2.2716281E4,3.2780742E3,2.81965E3,4.0165586E3,4.4631016E3,9.3846094E2,1.3448252E3,6.1393054E2,5.5158484E2,4.6191797E2,4.3010547E2,5.7477344E2,4.655039E2,1.4116846E2,1.9369531E2,2.0941309E2,5.0320508E2,3.6307294E2,4.9451038E2,1.0585315E2,3.1868927E2,3.5379395E2,2.9637695E2,1.4439258E2,3.3719727E2,8.957617E1,2.7415234E2,0E0,0E0,5.593701E1,5.5116943E1,3.0269653E1,1.602832E2,9.675415E1,1.0968994E2,2.4204199E2,5.2526074E2,7.4098145E1,1.1465268E2,1.4719897E2,3.6209814E2,7.3531494E1,2.2052422E1,2.795588E2,9.4660645E1,1.628872E2,1.0230832E2,9.846753E1,7.1907715E1,1.7062012E2,7.248901E1,2.2928125E2,0E0,1.2285449E2,4.8288574E1,2.4955078E1,8.590283E1,0E0,0E0,0E0,0E0,0E0,0E0,0E0,0E0,0E0,0E0,0E0,0E0,0E0,0E0,0E0,0E0,0E0,0E0,0E0,0E0,0E0,0E0,0E0,0E0,0E0,0E0,0E0,0E0,0E0,0E0,0E0,0E0,0E0,0E0,0E0,0E0,0E0,0E0,0E0,0E0,0E0,0E0,0E0,0E0,0E0,0E0,0E0,0E0,0E0,0E0,0E0,0E0,0E0,0E0],"parents":[2147483647,0,0,1,1,2,2,3,3,4,4,5,5,6,6,7,7,8,8,9,9,10,10,11,11,12,12,13,13,14,14,15,15,16,16,17,17,18,18,19,19,20,20,21,21,22,22,23,23,24,24,25,25,26,26,27,27,28,28,31,31,32,32,33,33,34,34,35,35,36,36,37,37,38,38,39,39,40,40,41,41,42,42,43,43,44,44,45,45,46,46,47,47,48,48,49,49,50,50,51,51,52,52,53,53,55,55,56,56,57,57,58,58],"right_children":[2,4,6,8,10,12,14,16,18,20,22,24,26,28,30,32,34,36,38,40,42,44,46,48,50,52,54,56,58,-1,-1,60,62,64,66,68,70,72,74,76,78,80,82,84,86,88,90,92,94,96,98,100,102,104,-1,106,108,110,112,-1,-1,-1,-1,-1,-1,-1,-1,-1,-1,-1,-1,-1,-1,-1,-1,-1,-1,-1,-1,-1,-1,-1,-1,-1,-1,-1,-1,-1,-1,-1,-1,-1,-1,-1,-1,-1,-1,-1,-1,-1,-1,-1,-1,-1,-1,-1,-1,-1,-1,-1,-1,-1,-1],"split_conditions":[9.2E0,3.8E0,1.68E1,2E0,6.2E0,1.21E1,2.34E1,-6.5E0,-3E0,-2.2E0,-4.2E0,4.226E-1,1.38E1,1.88E1,3.09E1,4.7E0,-5.1E0,2.4E0,1.01E1,2.5E0,4.7E0,9.925E-1,2.1E1,1.2E1,1.01E1,3.31E2,3.58E2,1E-1,1.6E0,-7.5323915E-1,-1.0945448E0,1.2E0,-4E-1,8.3E0,1E0,2.8E0,2.9E0,8E-1,2.1E1,3.58E2,-4.54E-1,9.563E-1,1E0,7.6E0,7.7E0,7.7E0,7.7E0,2.46E1,9.4E0,-5E-1,-8E-1,3.7E0,-1.15E1,-1.75E-2,-5.976728E-3,2.11E2,3E-1,-1.6E0,2.2E0,1.5596296E-1,1.2175862E-1,2.6657718E-1,1.7374027E-1,1.4137812E-1,2.1528636E-1,2.4684663E-1,2.0805453E-1,7.926134E-2,4.4859648E-2,1.1790957E-1,7.660126E-2,1.2448559E-1,1.729677E-1,2.0843475E-1,6.112455E-1,-2.566402E-2,7.76775E-2,1.0915285E-1,3.1459406E-2,8.175944E-2,1.5893427E-1,1.8531466E-2,1.010183E-1,-1.11981235E-1,-1.8880634E-1,-7.4736975E-2,1.388743E-2,-5.762859E-3,-5.6821954E-2,-6.743654E-2,-1.3510084E-1,-1.4988375E-1,-6.1070096E-2,1.3067916E-1,-5.569631E-2,-1.8519336E-1,-1.0510812E-1,-2.5944042E-1,-1.992648E-1,-2.907608E-1,-1.4665997E-1,-3.0378458E-1,-1.909677E-1,-2.9772708E-1,-3.7653342E-1,-4.9405843E-1,-3.9215875E-1,-1.9780144E-1,-3.6760414E-1,-5.0881433E-1,-5.8713716E-1,-2.8114733E-1,-4.5812503E-1],"split_indices":[0,0,0,0,0,0,0,2,2,2,14,9,0,0,0,14,14,14,7,14,0,10,3,2,0,5,5,14,1,0,0,0,1,2,0,0,0,1,3,5,10,10,1,0,2,0,0,7,0,14,14,14,2,9,0,5,14,1,1,0,0,0,0,0,0,0,0,0,0,0,0,0,0,0,0,0,0,0,0,0,0,0,0,0,0,0,0,0,0,0,0,0,0,0,0,0,0,0,0,0,0,0,0,0,0,0,0,0,0,0,0,0,0],"split_type":[0,0,0,0,0,0,0,0,0,0,0,0,0,0,0,0,0,0,0,0,0,0,0,0,0,0,0,0,0,0,0,0,0,0,0,0,0,0,0,0,0,0,0,0,0,0,0,0,0,0,0,0,0,0,0,0,0,0,0,0,0,0,0,0,0,0,0,0,0,0,0,0,0,0,0,0,0,0,0,0,0,0,0,0,0,0,0,0,0,0,0,0,0,0,0,0,0,0,0,0,0,0,0,0,0,0,0,0,0,0,0,0,0],"sum_hessian":[1.2091E4,9.349E3,2.742E3,5.406E3,3.943E3,2.031E3,7.11E2,2.307E3,3.099E3,2.389E3,1.554E3,1.166E3,8.65E2,5.79E2,1.32E2,7.49E2,1.558E3,1.509E3,1.59E3,8.25E2,1.564E3,1.69E2,1.385E3,7.4E2,4.26E2,4.13E2,4.52E2,2.55E2,3.24E2,1.15E2,1.7E1,5.94E2,1.55E2,1.35E2,1.423E3,8.31E2,6.78E2,1.446E3,1.44E2,5.13E2,3.12E2,6.53E2,9.11E2,1.39E2,3E1,1.125E3,2.6E2,6.35E2,1.05E2,1.68E2,2.58E2,2.76E2,1.37E2,4.44E2,8E0,1.95E2,6E1,2.47E2,7.7E1,2.09E2,3.85E2,2.3E1,1.32E2,1.14E2,2.1E1,4.28E2,9.95E2,4.22E2,4.09E2,3.83E2,2.95E2,1.096E3,3.5E2,1.36E2,8E0,4.96E2,1.7E1,5.8E1,2.54E2,5.83E2,7E1,7.5E2,1.61E2,7E1,6.9E1,2E1,1E1,6.85E2,4.4E2,1.86E2,7.4E1,5.76E2,5.9E1,7E0,9.8E1,7.2E1,9.6E1,1.18E2,1.4E2,2.5E2,2.6E1,2E1,1.17E2,2.39E2,2.05E2,8.5E1,1.1E2,9E0,5.1E1,1.07E2,1.4E2,1.5E1,6.2E1],"tree_param":{"num_deleted":"0","num_feature":"15","num_nodes":"113","size_leaf_vector":"1"}},{"base_weights":[-1.5647819E-3,1.6214596E0,-5.779057E0,2.760421E0,-3.4051478E-2,-4.315863E0,-1.0859615E1,3.5407693E0,2.0674186E0,5.227998E-1,-1.2350857E0,-3.1175086E0,-5.961798E0,-9.42101E0,-1.6138857E1,2.7029154E0,3.9375353E0,1.4250523E0,2.6487668E0,9.574809E-1,4.009463E-2,-3.2412255E-1,-1.5261762E0,-2.5604632E0,-3.6360595E0,-5.227504E0,-6.627599E0,-8.252386E0,-1.01773E1,-7.4207574E-1,-1.0649532E0,4.6375737E0,2.6042817E0,4.403264E0,3.5676134E0,1.7789025E0,1.098788E0,2.343982E0,3.7923915E0,2.9154038E-1,1.352625E0,-1.8022625E-1,1.1677849E0,-7.1685624E-1,7.9149634E-1,-8.771061E-1,-2.031348E0,-1.205549E0,-2.9589E0,-1.796227E0,-3.7943993E0,-5.7773576E0,-4.113512E0,-6.7311783E0,-3.793332E-2,-9.486265E0,-7.730702E0,-5.5248874E-1,-9.576701E0,3.7011686E-1,1.6650845E-1,1.5655324E-1,1.18299186E-1,2.3758197E-1,2.065407E-1,1.7256884E-1,2.26912E-1,7.788413E-2,1.09177284E-1,3.3531662E-2,6.715548E-2,1.3410066E-1,1.0007244E-1,1.7935328E-1,6.3259965E-1,7.9042085E-2,5.8075623E-3,6.105544E-2,1.2334174E-1,-2.8684914E-2,2.0508643E-2,1.9245025E-2,1.1448693E-1,5.854245E-4,-5.9090324E-2,5.537345E-2,-1.0495988E-1,-5.3036958E-2,8.246847E-2,-1.3766673E-1,-7.953661E-2,-1.0300775E-1,-1.8458933E-2,-1.0101789E-1,-1.6864452E-1,-1.3748895E-1,-5.44552E-2,-2.0122139E-1,-1.4148216E-1,-2.1231668E-1,-3.0157056E-1,-3.048255E-1,-1.8491624E-1,-2.955726E-1,-3.6483258E-1,-2.5395697E-1,-4.9742588E-1,-3.9288688E-1,-2.327889E-1,-4.1679868E-1,-5.226408E-1],"categories":[],"categories_nodes":[],"categories_segments":[],"categories_sizes":[],"default_left":[0,0,0,0,0,0,0,0,0,0,0,0,0,0,0,0,0,0,0,0,0,0,0,0,0,0,0,0,0,0,0,0,0,0,0,0,0,0,0,0,0,0,0,0,0,0,0,0,0,0,0,0,0,0,0,0,0,0,0,0,0,0,0,0,0,0,0,0,0,0,0,0,0,0,0,0,0,0,0,0,0,0,0,0,0,0,0,0,0,0,0,0,0,0,0,0,0,0,0,0,0,0,0,0,0,0,0,0,0,0,0],"id":1,"left_children":[1,3,5,7,9,11,13,15,17,19,21,23,25,27,29,31,33,35,37,39,41,43,45,47,49,51,53,55,57,-1,-1,59,61,63,65,67,69,71,73,75,77,79,81,83,85,87,89,91,93,95,97,99,101,103,-1,105,107,-1,109,-1,-1,-1,-1,-1,-1,-1,-1,-1,-1,-1,-1,-1,-1,-1,-1,-1,-1,-1,-1,-1,-1,-1,-1,-1,-1,-1,-1,-1,-1,-1,-1,-1,-1,-1,-1,-1,-1,-1,-1,-1,-1,-1,-1,-1,-1,-1,-1,-1,-1,-1,-1],"loss_changes":[1.1390296E5,1.7881162E4,1.9755367E4,3.0302383E3,2.5862878E3,4.0634023E3,4.3642734E3,8.6664844E2,1.107918E3,5.5421375E2,3.2415674E2,3.3669727E2,3.899922E2,3.295664E2,5.2378906E2,1.497793E2,2.9188086E2,1.6134839E2,5.349463E2,3.6520923E2,3.1162173E2,1.3112598E2,3.0221118E2,3.10208E2,1.7295166E2,2.3189746E2,2.6952344E2,4.7245117E1,3.936328E1,0E0,0E0,1.18862305E2,9.409912E1,5.4277344E1,9.669824E1,5.6915527E1,7.6307495E1,1.3727588E2,5.4784033E2,1.17007866E2,1.24398926E2,2.4394019E2,1.7891501E2,7.49938E1,7.346927E1,1.9098004E2,1.6092578E2,9.477528E1,1.6710376E2,3.1009506E1,1.14200195E2,8.149219E1,9.338428E1,1.6181836E2,0E0,5.3902344E1,1.6460938E1,0E0,1.0012695E2,0E0,0E0,0E0,0E0,0E0,0E0,0E0,0E0,0E0,0E0,0E0,0E0,0E0,0E0,0E0,0E0,0E0,0E0,0E0,0E0,0E0,0E0,0E0,0E0,0E0,0E0,0E0,0E0,0E0,0E0,0E0,0E0,0E0,0E0,0E0,0E0,0E0,0E0,0E0,0E0,0E0,0E0,0E0,0E0,0E0,0E0,0E0,0E0,0E0,0E0,0E0,0E0],"parents":[2147483647,0,0,1,1,2,2,3,3,4,4,5,5,6,6,7,7,8,8,9,9,10,10,11,11,12,12,13,13,14,14,15,15,16,16,17,17,18,18,19,19,20,20,21,21,22,22,23,23,24,24,25,25,26,26,27,27,28,28,31,31,32,32,33,33,34,34,35,35,36,36,37,37,38,38,39,39,40,40,41,41,42,42,43,43,44,44,45,45,46,46,47,47,48,48,49,49,50,50,51,51,52,52,53,53,55,55,56,56,58,58],"right_children":[2,4,6,8,10,12,14,16,18,20,22,24,26,28,30,32,34,36,38,40,42,44,46,48,50,52,54,56,58,-1,-1,60,62,64,66,68,70,72,74,76,78,80,82,84,86,88,90,92,94,96,98,100,102,104,-1,106,108,-1,110,-1,-1,-1,-1,-1,-1,-1,-1,-1,-1,-1,-1,-1,-1,-1,-1,-1,-1,-1,-1,-1,-1,-1,-1,-1,-1,-1,-1,-1,-1,-1,-1,-1,-1,-1,-1,-1,-1,-1,-1,-1,-1,-1,-1,-1,-1,-1,-1,-1,-1,-1,-1],"split_conditions":[9.4E0,3.9E0,1.76E1,2.2E0,6.8E0,1.25E1,2.45E1,-6.5E0,-3.3E0,5.2E0,-5E-1,1.07E1,1.48E1,1.93E1,3.09E1,-5E-1,1.4E0,2.9E0,9E-1,-1.7E0,1E0,7.071E-1,7.7E0,3.26E1,2.7E1,2.82E2,3.58E2,1.4E1,1.2E1,-7.4207574E-1,-1.0649532E0,-4E-1,1.2E0,9E-1,4.82E1,-7.4E0,-1.01E1,1.68E2,2.2E1,-5E-1,9.563E-1,4.21E1,8.829E-1,7E0,3.56E2,7.6E0,-6.561E-1,2.59E1,-5E-1,7E-1,4.93E1,-2.4E0,-1.07E1,3.79E1,-3.793332E-2,-2.5E0,3.58E2,-5.5248874E-1,5.4E0,3.7011686E-1,1.6650845E-1,1.5655324E-1,1.18299186E-1,2.3758197E-1,2.065407E-1,1.7256884E-1,2.26912E-1,7.788413E-2,1.09177284E-1,3.3531662E-2,6.715548E-2,1.3410066E-1,1.0007244E-1,1.7935328E-1,6.3259965E-1,7.9042085E-2,5.8075623E-3,6.105544E-2,1.2334174E-1,-2.8684914E-2,2.0508643E-2,1.9245025E-2,1.1448693E-1,5.854245E-4,-5.9090324E-2,5.537345E-2,-1.0495988E-1,-5.3036958E-2,8.246847E-2,-1.3766673E-1,-7.953661E-2,-1.0300775E-1,-1.8458933E-2,-1.0101789E-1,-1.6864452E-1,-1.3748895E-1,-5.44552E-2,-2.0122139E-1,-1.4148216E-1,-2.1231668E-1,-3.0157056E-1,-3.048255E-1,-1.8491624E-1,-2.955726E-1,-3.6483258E-1,-2.5395697E-1,-4.9742588E-1,-3.9288688E-1,-2.327889E-1,-4.1679868E-1,-5.226408E-1],"split_indices":[0,0,0,0,0,0,0,2,2,0,12,0,0,0,0,12,0,0,1,2,1,10,0,13,5,5,5,3,3,0,0,1,0,0,6,2,2,5,3,12,10,6,10,2,5,0,10,13,12,1,6,1,2,13,0,1,5,0,2,0,0,0,0,0,0,0,0,0,0,0,0,0,0,0,0,0,0,0,0,0,0,0,0,0,0,0,0,0,0,0,0,0,0,0,0,0,0,0,0,0,0,0,0,0,0,0,0,0,0,0,0],"split_type":[0,0,0,0,0,0,0,0,0,0,0,0,0,0,0,0,0,0,0,0,0,0,0,0,0,0,0,0,0,0,0,0,0,0,0,0,0,0,0,0,0,0,0,0,0,0,0,0,0,0,0,0,0,0,0,0,0,0,0,0,0,0,0,0,0,0,0,0,0,0,0,0,0,0,0,0,0,0,0,0,0,0,0,0,0,0,0,0,0,0,0,0,0,0,0,0,0,0,0,0,0,0,0,0,0,0,0,0,0,0,0],"sum_hessian":[1.2145E4,9.482E3,2.663E3,5.617E3,3.865E3,2.069E3,5.94E2,2.64E3,2.977E3,2.641E3,1.224E3,1.199E3,8.7E2,4.69E2,1.25E2,8.51E2,1.789E3,1.416E3,1.561E3,1.389E3,1.252E3,2.97E2,9.27E2,5.81E2,6.18E2,4.18E2,4.52E2,1.89E2,2.8E2,1.03E2,2.2E1,3.9E1,8.12E2,7.87E2,1.002E3,6.77E2,7.39E2,1.235E3,3.26E2,5.18E2,8.71E2,1.048E3,2.04E2,2.2E2,7.7E1,4.07E2,5.2E2,1.33E2,4.48E2,5E1,5.68E2,2.77E2,1.41E2,4.44E2,8E0,5.1E1,1.38E2,1.07E2,1.73E2,1.1E1,2.8E1,2.49E2,5.63E2,3.38E2,4.49E2,8.99E2,1.03E2,4.41E2,2.36E2,2.7E2,4.69E2,6.18E2,6.17E2,3.2E2,6E0,6.1E1,4.57E2,7.81E2,9E1,6.29E2,4.19E2,1.21E2,8.3E1,8.6E1,1.34E2,7E1,7E0,3.8E2,2.7E1,1.95E2,3.25E2,6.5E1,6.8E1,1.39E2,3.09E2,2E1,3E1,4.56E2,1.12E2,4.2E1,2.35E2,2.2E1,1.19E2,1.86E2,2.58E2,6E0,4.5E1,1.31E2,7E0,7.6E1,9.7E1],"tree_param":{"num_deleted":"0","num_feature":"15","num_nodes":"111","size_leaf_vector":"1"}},{"base_weights":[-2.0849796E-2,-4.476588E0,5.269558E-1,-6.6047044E0,-1.131195E0,-2.377157E-1,1.8593265E0,-4.9046984E0,-9.186886E0,-2.5442421E0,3.1347895E-1,3.2024118E-1,-2.3995018E0,1.0490307E0,2.2412655E0,-4.665887E0,-4.3374404E-1,-1.2244599E1,-6.8005724E0,-2.1695359E0,-5.0643477E0,-9.764777E-1,2.5480475E0,3.847412E-1,-6.2410097E0,-1.6960559E0,-6.2601395E0,1.2769641E0,-9.936907E-1,2.371053E0,5.3556025E-1,-8.356693E0,-4.3997808E0,-1.3777084E1,-1.0117528E1,7.68579E-1,-8.938845E0,-4.065899E0,-1.6027919E0,-5.839445E0,-1.4871016E-1,1.4199915E0,-1.6436372E0,-4.865184E-2,2.8880675E0,-6.6556543E-1,8.445247E-1,-5.263061E-1,-6.204114E-1,-3.1365223E0,-7.3994255E-1,-6.9770837E0,-9.7941744E-1,1.3764207E0,-1.3392986E0,3.762891E-1,-3.5006826E0,1.897529E0,2.6840177E0,2.041922E0,1.3231495E-1,-3.791792E-2,-4.9210128E-1,-2.2998373E-1,-8.70873E-2,-1.0167178E0,-6.4213926E-1,-3.3838874E-1,-5.774565E-1,7.6728836E-2,-4.958071E-2,-7.5753355E-1,-4.1240665E-1,-1.1603331E-1,-2.322589E-1,-1.609652E-2,-1.346233E-1,-3.4156436E-1,-2.1763249E-1,-1.1353059E-1,1.1185663E-1,-4.8462156E-2,-2.0633844E-1,8.2190275E-2,1.5737794E-1,1.7870415E-2,-1.3205434E-1,4.805966E-2,-7.230704E-2,1.3218936E-1,-3.745891E-1,-2.2362156E-1,-5.4893214E-2,-5.7132065E-2,1.072855E-1,-2.8996557E-1,-5.169212E-1,-1.10204495E-1,4.9660258E-2,1.023347E-1,5.817873E-2,-1.7888789E-1,-1.6066147E-2,6.0795654E-2,-1.2553252E-1,-2.0044343E-1,-1.0409614E-1,1.5815924E-1,8.1087925E-2,1.5176988E-1,1.0198809E-1,1.1789971E-1,1.0036321E-2,3.6037054E-2,-6.563691E-2],"categories":[],"categories_nodes":[],"categories_segments":[],"categories_sizes":[],"default_left":[0,0,0,0,0,0,0,0,0,0,0,0,0,0,0,0,0,0,0,0,0,0,0,0,0,0,0,0,0,0,0,0,0,0,0,0,0,0,0,0,0,0,0,0,0,0,0,0,0,0,0,0,0,0,0,0,0,0,0,0,0,0,0,0,0,0,0,0,0,0,0,0,0,0,0,0,0,0,0,0,0,0,0,0,0,0,0,0,0,0,0,0,0,0,0,0,0,0,0,0,0,0,0,0,0,0,0,0,0,0,0,0,0,0,0],"id":2,"left_children":[1,3,5,7,9,11,13,15,17,19,21,23,25,27,29,31,-1,33,35,37,39,41,43,45,47,49,51,53,55,57,59,61,63,65,67,69,71,73,75,77,-1,79,81,-1,83,85,87,-1,89,91,93,95,97,99,101,103,105,107,109,111,113,-1,-1,-1,-1,-1,-1,-1,-1,-1,-1,-1,-1,-1,-1,-1,-1,-1,-1,-1,-1,-1,-1,-1,-1,-1,-1,-1,-1,-1,-1,-1,-1,-1,-1,-1,-1,-1,-1,-1,-1,-1,-1,-1,-1,-1,-1,-1,-1,-1,-1,-1,-1,-1,-1],"loss_changes":[2.9517852E4,9.41782E3,1.0972341E4,3.5048203E3,1.0543792E3,8.25489E3,1.2126621E3,3.9936816E2,2.2497559E3,2.3475146E2,7.4056445E2,2.3040278E3,3.8015005E3,5.87959E2,5.890781E2,4.1668945E2,0E0,3.1132227E2,2.9533408E3,2.3903455E2,3.5213074E1,2.6296515E2,1.1554205E2,2.6025186E3,1.268854E3,1.6348403E3,8.1014355E2,2.969193E2,4.3781485E2,3.6182812E2,1.1492474E2,3.3005786E2,2.219502E2,2.1339551E2,2.1732812E2,5.685646E1,4.8195703E2,4.10943E1,2.4727017E2,3.0647583E0,0E0,1.13643074E2,2.0984055E2,0E0,2.2114197E1,3.3174797E3,1.002989E3,0E0,5.585999E2,1.2854536E3,8.343782E2,6.9061914E2,6.753725E1,1.5323022E2,9.416575E1,2.0411058E2,2.3489502E1,3.399319E2,3.306045E2,2.2548828E1,1.2928328E2,0E0,0E0,0E0,0E0,0E0,0E0,0E0,0E0,0E0,0E0,0E0,0E0,0E0,0E0,0E0,0E0,0E0,0E0,0E0,0E0,0E0,0E0,0E0,0E0,0E0,0E0,0E0,0E0,0E0,0E0,0E0,0E0,0E0,0E0,0E0,0E0,0E0,0E0,0E0,0E0,0E0,0E0,0E0,0E0,0E0,0E0,0E0,0E0,0E0,0E0,0E0,0E0,0E0,0E0],"parents":[2147483647,0,0,1,1,2,2,3,3,4,4,5,5,6,6,7,7,8,8,9,9,10,10,11,11,12,12,13,13,14,14,15,15,17,17,18,18,19,19,20,20,21,21,22,22,23,23,24,24,25,25,26,26,27,27,28,28,29,29,30,30,31,31,32,32,33,33,34,34,35,35,36,36,37,37,38,38,39,39,41,41,42,42,44,44,45,45,46,46,48,48,49,49,50,50,51,51,52,52,53,53,54,54,55,55,56,56,57,57,58,58,59,59,60,60],"right_children":[2,4,6,8,10,12,14,16,18,20,22,24,26,28,30,32,-1,34,36,38,40,42,44,46,48,50,52,54,56,58,60,62,64,66,68,70,72,74,76,78,-1,80,82,-1,84,86,88,-1,90,92,94,96,98,100,102,104,106,108,110,112,114,-1,-1,-1,-1,-1,-1,-1,-1,-1,-1,-1,-1,-1,-1,-1,-1,-1,-1,-1,-1,-1,-1,-1,-1,-1,-1,-1,-1,-1,-1,-1,-1,-1,-1,-1,-1,-1,-1,-1,-1,-1,-1,-1,-1,-1,-1,-1,-1,-1,-1,-1,-1,-1,-1],"split_conditions":[-1E0,1.4E0,2.6E0,1.89E2,3.5E0,3.39E2,4.1E0,5.58E1,-2E0,5.45E1,1.8E2,2.4E0,1.7E0,3.48E2,1.24E1,-9.976E-1,-4.3374404E-1,-2.5E0,7E0,-2.1E0,2.2E1,1.26E2,-2E0,-7.071E-1,9E0,-0E0,5.16E1,1.64E1,1.1E0,3.33E1,1.33E2,4.06E1,1.41E1,1E0,9E0,-1.2E0,3.73E1,1.1E1,7E0,-9.903E-1,-1.4871016E-1,-2.6E0,4.64E1,-4.865184E-2,-9E-1,8.8E0,9.925E-1,-5.263061E-1,1.4E1,-5E-1,3.6E2,2.6E0,1.24E1,1.33E2,-1E-1,4.07E1,-6E-1,-3.584E-1,3.52E1,5E-1,5.16E1,-3.791792E-2,-4.9210128E-1,-2.2998373E-1,-8.70873E-2,-1.0167178E0,-6.4213926E-1,-3.3838874E-1,-5.774565E-1,7.6728836E-2,-4.958071E-2,-7.5753355E-1,-4.1240665E-1,-1.1603331E-1,-2.322589E-1,-1.609652E-2,-1.346233E-1,-3.4156436E-1,-2.1763249E-1,-1.1353059E-1,1.1185663E-1,-4.8462156E-2,-2.0633844E-1,8.2190275E-2,1.5737794E-1,1.7870415E-2,-1.3205434E-1,4.805966E-2,-7.230704E-2,1.3218936E-1,-3.745891E-1,-2.2362156E-1,-5.4893214E-2,-5.7132065E-2,1.072855E-1,-2.8996557E-1,-5.169212E-1,-1.10204495E-1,4.9660258E-2,1.023347E-1,5.817873E-2,-1.7888789E-1,-1.6066147E-2,6.0795654E-2,-1.2553252E-1,-2.0044343E-1,-1.0409614E-1,1.5815924E-1,8.1087925E-2,1.5176988E-1,1.0198809E-1,1.1789971E-1,1.0036321E-2,3.6037054E-2,-6.563691E-2],"split_indices":[1,14,14,5,14,5,14,13,1,6,5,1,1,5,2,10,0,1,3,1,3,5,1,10,5,12,13,2,1,6,5,13,2,3,3,1,13,2,3,10,0,1,13,0,2,2,10,0,3,2,5,1,2,5,1,13,2,10,13,11,13,0,0,0,0,0,0,0,0,0,0,0,0,0,0,0,0,0,0,0,0,0,0,0,0,0,0,0,0,0,0,0,0,0,0,0,0,0,0,0,0,0,0,0,0,0,0,0,0,0,0,0,0,0,0],"split_type":[0,0,0,0,0,0,0,0,0,0,0,0,0,0,0,0,0,0,0,0,0,0,0,0,0,0,0,0,0,0,0,0,0,0,0,0,0,0,0,0,0,0,0,0,0,0,0,0,0,0,0,0,0,0,0,0,0,0,0,0,0,0,0,0,0,0,0,0,0,0,0,0,0,0,0,0,0,0,0,0,0,0,0,0,0,0,0,0,0,0,0,0,0,0,0,0,0,0,0,0,0,0,0,0,0,0,0,0,0,0,0,0,0,0,0],"sum_hessian":[1.2091E4,1.323E3,1.0768E4,8.08E2,5.15E2,6.842E3,3.926E3,4.89E2,3.19E2,2.6E2,2.55E2,5.439E3,1.403E3,1.259E3,2.667E3,4.62E2,2.7E1,1.38E2,1.81E2,2.28E2,3.2E1,1.62E2,9.3E1,5.387E3,5.2E1,1.188E3,2.15E2,1.133E3,1.26E2,2.478E3,1.89E2,2.9E1,4.33E2,7.7E1,6.1E1,4E1,1.41E2,5.1E1,1.77E2,2.2E1,1E1,3.5E1,1.27E2,8E0,8.5E1,1.64E3,3.747E3,2.9E1,2.3E1,4.73E2,7.15E2,1.89E2,2.6E1,1.092E3,4.1E1,8.2E1,4.4E1,9.89E2,1.489E3,3.9E1,1.5E2,5E0,2.4E1,4.02E2,3.1E1,7E0,7E1,2E1,4.1E1,2.8E1,1.2E1,1.2E1,1.29E2,1.4E1,3.7E1,8.2E1,9.5E1,1.1E1,1.1E1,6E0,2.9E1,1.01E2,2.6E1,1.6E1,6.9E1,1.081E3,5.59E2,3.566E3,1.81E2,1.6E1,7E0,2.85E2,1.88E2,6.28E2,8.7E1,1.42E2,4.7E1,1.6E1,1E1,2.61E2,8.31E2,1.2E1,2.9E1,6.4E1,1.8E1,3.1E1,1.3E1,1.75E2,8.14E2,9.61E2,5.28E2,3.3E1,6E0,1.07E2,4.3E1],"tree_param":{"num_deleted":"0","num_feature":"15","num_nodes":"115","size_leaf_vector":"1"}},{"base_weights":[-2.395488E-3,1.459438E0,-5.4295826E0,2.3541489E0,-4.3470854E-1,-4.1142607E0,-9.917487E0,3.2179682E0,1.6156068E0,1.4619632E-1,-1.191817E0,-2.8351223E0,-5.3802176E0,-8.681866E0,-1.4701779E1,2.6380775E0,3.7278035E0,1.0195588E0,2.097293E0,1.1458185E-1,3.957641E-1,-2.681283E0,-9.886457E-1,-2.2342634E0,-3.5960016E0,-4.836078E0,-6.272503E0,-7.590821E0,-9.356352E0,-6.823879E-1,-9.4578505E-1,2.315082E0,3.2768378E0,4.202659E0,3.3089108E0,6.462144E-1,1.4980944E0,1.8984232E0,3.7915761E0,-3.508054E-1,6.139907E-1,-2.8736715E0,-2.9186544E-1,-2.5240576E-1,-1.232543E0,-1.3966146E0,-2.8016713E0,-4.32493E0,-2.8399637E0,-5.1846933E0,-3.8641665E0,-6.3833585E0,-1.8828338E-2,-7.696162E0,-1.9142488E-1,-5.730712E-1,-9.08917E0,1.4355831E-1,1.0242809E-1,2.599449E-1,1.4740472E-1,1.8000756E-1,2.2057228E-1,1.6057819E-1,2.2888748E-1,5.3993024E-2,6.7981924E-3,1.01058856E-1,6.2219113E-2,1.24075845E-1,7.767347E-2,5.078896E-1,1.7207783E-1,-5.2803546E-2,1.4133247E-3,1.85693E-2,1.2948193E-1,-1.7851536E-1,-1.1303651E-1,-1.0136795E-1,1.0270517E-1,1.8890003E-2,-4.770284E-2,-7.619091E-2,-1.2025239E-2,-1.528326E-1,-5.5400517E-2,-1.5340063E-1,-4.4678062E-2,-2.5997433E-1,-1.74758E-1,-1.4999387E-1,-3.8814083E-2,-2.919106E-1,-2.0537762E-1,-1.5638506E-1,-2.3409975E-1,-3.529794E-1,-2.8341094E-1,-3.609524E-1,-4.2981863E-1,-4.7641268E-1,-3.7471816E-1],"categories":[],"categories_nodes":[],"categories_segments":[],"categories_sizes":[],"default_left":[0,0,0,0,0,0,0,0,0,0,0,0,0,0,0,0,0,0,0,0,0,0,0,0,0,0,0,0,0,0,0,0,0,0,0,0,0,0,0,0,0,0,0,0,0,0,0,0,0,0,0,0,0,0,0,0,0,0,0,0,0,0,0,0,0,0,0,0,0,0,0,0,0,0,0,0,0,0,0,0,0,0,0,0,0,0,0,0,0,0,0,0,0,0,0,0,0,0,0,0,0,0,0],"id":3,"left_children":[1,3,5,7,9,11,13,15,17,19,21,23,25,27,29,31,33,35,37,39,-1,41,43,45,47,49,51,53,55,-1,-1,57,59,61,63,65,67,69,71,73,75,77,79,81,83,85,87,89,91,93,95,97,-1,99,-1,-1,101,-1,-1,-1,-1,-1,-1,-1,-1,-1,-1,-1,-1,-1,-1,-1,-1,-1,-1,-1,-1,-1,-1,-1,-1,-1,-1,-1,-1,-1,-1,-1,-1,-1,-1,-1,-1,-1,-1,-1,-1,-1,-1,-1,-1,-1,-1],"loss_changes":[9.6124414E4,1.617726E4,1.5134508E4,4.130258E3,1.3474109E3,3.2063984E3,3.3105586E3,8.7263086E2,1.0015674E3,4.2418735E2,3.9946265E2,4.4490674E2,4.5359766E2,2.6947656E2,2.626914E2,2.809043E2,3.0101758E2,2.784182E2,6.43541E2,4.018609E2,0E0,7.193652E1,2.099928E2,2.6040283E2,2.272793E2,1.9082617E2,2.4201953E2,4.1911133E1,5.2939453E1,0E0,0E0,1.3205176E2,2.795708E2,7.64043E1,8.9262695E1,1.9466885E2,8.8066284E1,3.441167E2,4.1379785E2,2.3940762E2,3.984796E2,5.4114014E1,5.7090107E1,1.2997813E2,2.537384E2,1.0495111E2,1.6507935E2,1.4060693E2,6.8906006E1,2.967207E2,8.636426E1,1.3667773E2,0E0,1.23828125E1,0E0,0E0,1.0615234E2,0E0,0E0,0E0,0E0,0E0,0E0,0E0,0E0,0E0,0E0,0E0,0E0,0E0,0E0,0E0,0E0,0E0,0E0,0E0,0E0,0E0,0E0,0E0,0E0,0E0,0E0,0E0,0E0,0E0,0E0,0E0,0E0,0E0,0E0,0E0,0E0,0E0,0E0,0E0,0E0,0E0,0E0,0E0,0E0,0E0,0E0],"parents":[2147483647,0,0,1,1,2,2,3,3,4,4,5,5,6,6,7,7,8,8,9,9,10,10,11,11,12,12,13,13,14,14,15,15,16,16,17,17,18,18,19,19,21,21,22,22,23,23,24,24,25,25,26,26,27,27,28,28,31,31,32,32,33,33,34,34,35,35,36,36,37,37,38,38,39,39,40,40,41,41,42,42,43,43,44,44,45,45,46,46,47,47,48,48,49,49,50,50,51,51,53,53,56,56],"right_children":[2,4,6,8,10,12,14,16,18,20,22,24,26,28,30,32,34,36,38,40,-1,42,44,46,48,50,52,54,56,-1,-1,58,60,62,64,66,68,70,72,74,76,78,80,82,84,86,88,90,92,94,96,98,-1,100,-1,-1,102,-1,-1,-1,-1,-1,-1,-1,-1,-1,-1,-1,-1,-1,-1,-1,-1,-1,-1,-1,-1,-1,-1,-1,-1,-1,-1,-1,-1,-1,-1,-1,-1,-1,-1,-1,-1,-1,-1,-1,-1,-1,-1,-1,-1,-1,-1],"split_conditions":[9.7E0,4.7E0,1.76E1,2.4E0,6.8E0,1.21E1,2.45E1,-2.7E0,-3.4E0,1.9E0,-4.2E0,1.908E-1,1.53E1,2.93E1,3.09E1,4.1E0,1.5E0,2.4E0,1.01E1,1.3E0,3.957641E-1,1.2E0,-5E-1,-2.588E-1,0E0,1.7E0,3.58E2,2.16E1,-6.293E-1,-6.823879E-1,-9.4578505E-1,1.2E0,-4E-1,-1.1E0,1.3E0,3.3E0,2.9E0,3.1E0,-4.6E0,3.57E1,1.52E1,3.75E1,3.54E2,4.067E-1,1.68E1,1.3E1,2.46E1,8.3E0,8.48E-1,2.82E2,1.2E1,2.11E2,-1.8828338E-2,-2.588E-1,-1.9142488E-1,-5.730712E-1,1.9E1,1.4355831E-1,1.0242809E-1,2.599449E-1,1.4740472E-1,1.8000756E-1,2.2057228E-1,1.6057819E-1,2.2888748E-1,5.3993024E-2,6.7981924E-3,1.01058856E-1,6.2219113E-2,1.24075845E-1,7.767347E-2,5.078896E-1,1.7207783E-1,-5.2803546E-2,1.4133247E-3,1.85693E-2,1.2948193E-1,-1.7851536E-1,-1.1303651E-1,-1.0136795E-1,1.0270517E-1,1.8890003E-2,-4.770284E-2,-7.619091E-2,-1.2025239E-2,-1.528326E-1,-5.5400517E-2,-1.5340063E-1,-4.4678062E-2,-2.5997433E-1,-1.74758E-1,-1.4999387E-1,-3.8814083E-2,-2.919106E-1,-2.0537762E-1,-1.5638506E-1,-2.3409975E-1,-3.529794E-1,-2.8341094E-1,-3.609524E-1,-4.2981863E-1,-4.7641268E-1,-3.7471816E-1],"split_indices":[0,0,0,0,0,0,0,2,2,1,14,9,0,7,0,14,0,14,7,14,0,1,12,12,14,14,5,0,9,0,0,0,1,14,1,0,0,0,14,6,7,6,5,9,7,7,7,2,9,5,3,5,0,12,0,0,3,0,0,0,0,0,0,0,0,0,0,0,0,0,0,0,0,0,0,0,0,0,0,0,0,0,0,0,0,0,0,0,0,0,0,0,0,0,0,0,0,0,0,0,0,0,0],"split_type":[0,0,0,0,0,0,0,0,0,0,0,0,0,0,0,0,0,0,0,0,0,0,0,0,0,0,0,0,0,0,0,0,0,0,0,0,0,0,0,0,0,0,0,0,0,0,0,0,0,0,0,0,0,0,0,0,0,0,0,0,0,0,0,0,0,0,0,0,0,0,0,0,0,0,0,0,0,0,0,0,0,0,0,0,0,0,0,0,0,0,0,0,0,0,0,0,0,0,0,0,0,0,0],"sum_hessian":[1.2114E4,9.544E3,2.57E3,6.482E3,3.062E3,1.989E3,5.81E2,2.986E3,3.496E3,1.733E3,1.329E3,9.91E2,9.98E2,4.64E2,1.17E2,1.4E3,1.586E3,1.564E3,1.932E3,1.727E3,6E0,1.58E2,1.171E3,5.56E2,4.35E2,6.24E2,3.74E2,1.82E2,2.82E2,9.7E1,2E1,9.33E2,4.67E2,7.39E2,8.47E2,8.8E2,6.84E2,1.731E3,2.01E2,8.94E2,8.33E2,1.46E2,1.2E1,2.92E2,8.79E2,2.26E2,3.3E2,2.19E2,2.16E2,4.56E2,1.68E2,3.67E2,7E0,1.76E2,6E0,2.7E1,2.55E2,2.99E2,6.34E2,6.6E1,4.01E2,1.95E2,5.44E2,7.9E2,5.7E1,4.75E2,4.05E2,2.21E2,4.63E2,6.41E2,1.09E3,9E0,1.92E2,3.12E2,5.82E2,7.43E2,9E1,6.6E1,8E1,7E0,5E0,1.54E2,1.38E2,6.79E2,2E2,3.2E1,1.94E2,2.89E2,4.1E1,1.04E2,1.15E2,2E2,1.6E1,2.81E2,1.75E2,9.1E1,7.7E1,1.84E2,1.83E2,1.21E2,5.5E1,1.96E2,5.9E1],"tree_param":{"num_deleted":"0","num_feature":"15","num_nodes":"103","size_leaf_vector":"1"}},{"base_weights":[-2.226795E-2,1.3714087E0,-5.287238E0,2.2404068E0,-4.6015948E-1,-3.9526088E0,-9.694164E0,3.1336741E0,1.6154201E0,1.440293E-1,-1.2492836E0,-2.867344E0,-5.266158E0,-8.426389E0,-1.4254882E1,2.5203335E0,3.5516493E0,1.0427679E0,2.0069025E0,-3.5877794E-2,1.1542147E0,-2.6333835E0,-1.0415195E0,-9.163696E-1,-3.0037138E0,-4.711063E0,-5.9583483E0,-7.295087E0,-9.09907E0,-6.495611E-1,-9.105074E-1,2.2474651E0,3.1922915E0,3.8078983E0,3.024792E0,1.4558048E0,6.6841304E-1,1.8318566E0,3.4519057E0,-4.3416226E-1,4.2136145E-1,-1.7696184E-1,1.5405695E0,-4.9733028E-1,-2.7888823E0,-5.583087E-1,-1.3713654E0,-5.971853E-1,-1.3968377E-1,-3.4449432E0,-2.4774883E0,-4.76683E0,2.872779E-2,-6.1220117E0,-3.5517871E0,-7.7185054E0,-5.837514E0,-4.7665793E-1,-8.05151E0,1.3293733E-1,1.01682045E-1,2.2620957E-1,1.4917763E-1,1.7402E-1,2.1084836E-1,1.4694518E-1,2.3401792E-1,6.173394E-2,1.0553638E-1,9.744362E-3,5.282659E-2,1.1928131E-1,6.972412E-2,2.2912629E-1,1.15539625E-1,-5.5590667E-2,-1.8275249E-3,1.3409995E-2,1.1841696E-1,-3.9334156E-2,5.3840738E-2,6.792953E-2,2.1653418E-1,-9.79025E-2,5.1007546E-2,-1.7653936E-1,-1.0498269E-1,-4.1134816E-2,3.8304184E-2,-3.0511463E-2,-8.158094E-2,-5.3412855E-2,3.040577E-2,-7.526168E-2,-1.8223895E-1,-7.042277E-2,-1.3732381E-1,-2.5851986E-1,-1.9997217E-1,-3.3057326E-1,-2.4429278E-1,-4.2147245E-2,-2.062286E-1,-4.1376457E-1,-3.2732227E-1,-1.703638E-1,-3.0644694E-1,-1.7167842E-1,-4.140791E-1],"categories":[],"categories_nodes":[],"categories_segments":[],"categories_sizes":[],"default_left":[0,0,0,0,0,0,0,0,0,0,0,0,0,0,0,0,0,0,0,0,0,0,0,0,0,0,0,0,0,0,0,0,0,0,0,0,0,0,0,0,0,0,0,0,0,0,0,0,0,0,0,0,0,0,0,0,0,0,0,0,0,0,0,0,0,0,0,0,0,0,0,0,0,0,0,0,0,0,0,0,0,0,0,0,0,0,0,0,0,0,0,0,0,0,0,0,0,0,0,0,0,0,0,0,0,0,0,0,0],"id":4,"left_children":[1,3,5,7,9,11,13,15,17,19,21,23,25,27,29,31,33,35,37,39,41,43,45,47,49,51,53,55,57,-1,-1,59,61,63,65,67,69,71,73,75,77,79,81,83,85,87,89,91,-1,93,95,97,-1,99,101,103,105,-1,107,-1,-1,-1,-1,-1,-1,-1,-1,-1,-1,-1,-1,-1,-1,-1,-1,-1,-1,-1,-1,-1,-1,-1,-1,-1,-1,-1,-1,-1,-1,-1,-1,-1,-1,-1,-1,-1,-1,-1,-1,-1,-1,-1,-1,-1,-1,-1,-1,-1,-1],"loss_changes":[8.848522E4,1.5177395E4,1.4805508E4,3.6048613E3,1.4635281E3,2.7482246E3,3.2658477E3,6.726172E2,8.510674E2,3.1619827E2,3.7964062E2,2.799375E2,3.0745117E2,2.8280664E2,3.9006836E2,1.9067285E2,2.0110938E2,2.3816992E2,5.6479785E2,2.6916257E2,1.356716E2,5.574695E1,1.8376855E2,4.0536236E1,2.2166602E2,1.4788574E2,1.2932129E2,6.282617E1,5.1083984E1,0E0,0E0,6.2103027E1,7.1937256E1,1.26427734E2,5.9708496E1,1.0350232E2,1.4926932E2,4.8506445E2,3.0223145E2,2.1270369E2,2.0426422E2,4.6685352E1,9.712683E1,3.0907288E1,7.434961E1,1.6590807E2,1.3506494E2,3.5898186E1,0E0,2.0254004E2,1.2712964E2,1.2891504E2,0E0,1.8436133E2,3.791919E1,3.1790527E1,9.325562E0,0E0,6.601465E1,0E0,0E0,0E0,0E0,0E0,0E0,0E0,0E0,0E0,0E0,0E0,0E0,0E0,0E0,0E0,0E0,0E0,0E0,0E0,0E0,0E0,0E0,0E0,0E0,0E0,0E0,0E0,0E0,0E0,0E0,0E0,0E0,0E0,0E0,0E0,0E0,0E0,0E0,0E0,0E0,0E0,0E0,0E0,0E0,0E0,0E0,0E0,0E0,0E0,0E0],"parents":[2147483647,0,0,1,1,2,2,3,3,4,4,5,5,6,6,7,7,8,8,9,9,10,10,11,11,12,12,13,13,14,14,15,15,16,16,17,17,18,18,19,19,20,20,21,21,22,22,23,23,24,24,25,25,26,26,27,27,28,28,31,31,32,32,33,33,34,34,35,35,36,36,37,37,38,38,39,39,40,40,41,41,42,42,43,43,44,44,45,45,46,46,47,47,49,49,50,50,51,51,53,53,54,54,55,55,56,56,58,58],"right_children":[2,4,6,8,10,12,14,16,18,20,22,24,26,28,30,32,34,36,38,40,42,44,46,48,50,52,54,56,58,-1,-1,60,62,64,66,68,70,72,74,76,78,80,82,84,86,88,90,92,-1,94,96,98,-1,100,102,104,106,-1,108,-1,-1,-1,-1,-1,-1,-1,-1,-1,-1,-1,-1,-1,-1,-1,-1,-1,-1,-1,-1,-1,-1,-1,-1,-1,-1,-1,-1,-1,-1,-1,-1,-1,-1,-1,-1,-1,-1,-1,-1,-1,-1,-1,-1,-1,-1,-1,-1,-1,-1],"split_conditions":[9.7E0,4.7E0,1.76E1,2.2E0,6.8E0,1.25E1,2.4E1,3.33E1,3.32E1,1E0,-3.7E0,1.1E1,1.52E1,2.93E1,2.91E1,4.3E0,1.7E0,3E0,1.01E1,1.3E0,6.7E0,-5E-1,7.7E0,5.52E1,4E-1,3.15E1,2.1E0,2.1E0,2E-1,-6.495611E-1,-9.105074E-1,1.2E0,-4E-1,3.6E0,5.31E1,5E0,1.4E0,3.1E0,3.5E0,3.61E1,1.61E1,3.79E1,3E0,2E0,-6.561E-1,1.7E1,-5E-1,4.82E1,-1.3968377E-1,-8.66E-1,-9.063E-1,3.31E2,2.872779E-2,4.98E1,-8E0,5.16E1,-7.1E0,-4.7665793E-1,2.98E1,1.3293733E-1,1.01682045E-1,2.2620957E-1,1.4917763E-1,1.7402E-1,2.1084836E-1,1.4694518E-1,2.3401792E-1,6.173394E-2,1.0553638E-1,9.744362E-3,5.282659E-2,1.1928131E-1,6.972412E-2,2.2912629E-1,1.15539625E-1,-5.5590667E-2,-1.8275249E-3,1.3409995E-2,1.1841696E-1,-3.9334156E-2,5.3840738E-2,6.792953E-2,2.1653418E-1,-9.79025E-2,5.1007546E-2,-1.7653936E-1,-1.0498269E-1,-4.1134816E-2,3.8304184E-2,-3.0511463E-2,-8.158094E-2,-5.3412855E-2,3.040577E-2,-7.526168E-2,-1.8223895E-1,-7.042277E-2,-1.3732381E-1,-2.5851986E-1,-1.9997217E-1,-3.3057326E-1,-2.4429278E-1,-4.2147245E-2,-2.062286E-1,-4.1376457E-1,-3.2732227E-1,-1.703638E-1,-3.0644694E-1,-1.7167842E-1,-4.140791E-1],"split_indices":[0,0,0,0,0,0,0,6,6,1,14,5,0,7,0,14,0,0,7,14,7,12,0,6,14,7,1,1,14,0,0,0,1,14,6,14,14,0,0,6,7,6,4,4,10,7,12,6,0,12,10,5,0,6,14,6,14,0,7,0,0,0,0,0,0,0,0,0,0,0,0,0,0,0,0,0,0,0,0,0,0,0,0,0,0,0,0,0,0,0,0,0,0,0,0,0,0,0,0,0,0,0,0,0,0,0,0,0,0],"split_type":[0,0,0,0,0,0,0,0,0,0,0,0,0,0,0,0,0,0,0,0,0,0,0,0,0,0,0,0,0,0,0,0,0,0,0,0,0,0,0,0,0,0,0,0,0,0,0,0,0,0,0,0,0,0,0,0,0,0,0,0,0,0,0,0,0,0,0,0,0,0,0,0,0,0,0,0,0,0,0,0,0,0,0,0,0,0,0,0,0,0,0,0,0,0,0,0,0,0,0,0,0,0,0,0,0,0,0,0,0],"sum_hessian":[1.2057E4,9.534E3,2.523E3,6.466E3,3.068E3,1.938E3,5.85E2,2.66E3,3.806E3,1.738E3,1.33E3,1.063E3,8.75E2,4.6E2,1.25E2,1.081E3,1.579E3,1.547E3,2.259E3,1.476E3,2.62E2,1.72E2,1.158E3,7E1,9.93E2,4.9E2,3.85E2,1.76E2,2.84E2,9.8E1,2.7E1,7.72E2,3.09E2,1.058E3,5.21E2,7.34E2,8.13E2,2.017E3,2.42E2,7.89E2,6.87E2,5.9E1,2.03E2,1.2E1,1.6E2,4.71E2,6.87E2,6.1E1,9E0,5.37E2,4.56E2,4.85E2,5E0,3.59E2,2.6E1,1.33E2,4.3E1,1.95E2,8.9E1,2.6E2,5.12E2,3.9E1,2.7E2,5.93E2,4.65E2,4.98E2,2.3E1,5.51E2,1.83E2,3.67E2,4.46E2,8.88E2,1.129E3,1.2E2,1.22E2,2.91E2,4.98E2,6.38E2,4.9E1,4E1,1.9E1,1.92E2,1.1E1,6E0,6E0,7.5E1,8.5E1,3.93E2,7.8E1,1.76E2,5.11E2,4.4E1,1.7E1,5.1E1,4.86E2,9.3E1,3.63E2,3.14E2,1.71E2,2.54E2,1.05E2,5E0,2.1E1,8.6E1,4.7E1,6E0,3.7E1,5E0,8.4E1],"tree_param":{"num_deleted":"0","num_feature":"15","num_nodes":"109","size_leaf_vector":"1"}},{"base_weights":[-1.7125089E-2,-3.7686565E0,4.4428E-1,-5.5454097E0,-1.2601074E0,-2.2536562E-1,1.6219097E0,-8.146365E0,-4.4156113E0,3.1135178E-1,-2.3360639E0,2.0413196E-1,-2.3903894E0,9.291006E-1,1.9478269E0,-1.0378184E1,-4.434234E0,-2.0775208E0,-5.2876463E0,-5.4090446E-1,1.6063268E0,-1.8951553E0,-4.7003264E0,-8.508937E-1,4.6002483E-1,-1.6163772E0,-5.824727E0,7.581516E-1,2.236542E0,2.0766842E0,2.7275392E-1,-1.1748644E1,-8.763633E0,-2.2981E-4,-4.9251246E0,-4.080265E0,-4.541712E-1,-4.2360764E0,-7.31919E0,-2.3641482E-1,-2.0875745E-1,-2.9936495E-1,2.5188584E0,-2.4355574E0,8.928716E-1,-6.0200677E0,-3.718464E-1,3.1921372E-1,-3.4038374E0,-2.1281235E0,5.9483427E-1,-2.0753841E0,1.6096314E0,-6.4711957E0,2.968833E-1,1.2042143E0,2.8586414E-1,2.532067E0,-9.512576E-1,1.6750171E0,2.3405857E0,2.328161E0,-1.6785358E-1,-9.1216534E-1,-5.516458E-1,-2.333984E-1,-4.8877722E-1,-2.882463E-1,-1.6907074E-1,-2.8693402E-1,-1.8061356E-1,-8.095871E-2,4.9803685E-2,-1.9561939E-1,-3.5223746E-1,3.1147609E-2,-3.8813192E-1,8.7872855E-2,-3.4017973E-2,-4.903836E-2,1.032676E-1,1.3966534E-1,-2.2290029E-2,-1.7128739E-1,-8.480567E-2,-2.9787192E-2,1.5224454E-1,-2.5597334E-1,-4.0549323E-1,-9.293523E-2,8.2796946E-2,4.146507E-2,-1.09257875E-2,-2.1034388E-1,1.7025594E-3,-5.73614E-2,-4.3129268E-1,8.367701E-2,1.5157546E-2,-1.491708E-1,-6.6381276E-2,2.432189E-2,1.2815301E-1,-2.816572E-1,-4.163034E-1,-6.0140442E-2,8.893385E-2,3.3386324E-2,8.4835954E-2,6.5570176E-2,-3.4990427E-3,1.1893302E-1,2.1851318E-1,-1.4536084E-1,3.1105954E-2,1.534376E-1,7.261785E-2,1.429878E-1,1.03263296E-1,1.5831621E-1,2.5966723E-2,1.6895695E-2,-6.395924E-2],"categories":[],"categories_nodes":[],"categories_segments":[],"categories_sizes":[],"default_left":[0,0,0,0,0,0,0,0,0,0,0,0,0,0,0,0,0,0,0,0,0,0,0,0,0,0,0,0,0,0,0,0,0,0,0,0,0,0,0,0,0,0,0,0,0,0,0,0,0,0,0,0,0,0,0,0,0,0,0,0,0,0,0,0,0,0,0,0,0,0,0,0,0,0,0,0,0,0,0,0,0,0,0,0,0,0,0,0,0,0,0,0,0,0,0,0,0,0,0,0,0,0,0,0,0,0,0,0,0,0,0,0,0,0,0,0,0,0,0,0,0,0,0],"id":5,"left_children":[1,3,5,7,9,11,13,15,17,19,21,23,25,27,29,31,33,35,37,39,41,43,45,47,49,51,53,55,57,59,61,63,65,-1,67,69,71,73,75,-1,77,79,81,83,85,87,89,91,93,95,97,99,101,103,105,107,109,111,113,115,117,119,121,-1,-1,-1,-1,-1,-1,-1,-1,-1,-1,-1,-1,-1,-1,-1,-1,-1,-1,-1,-1,-1,-1,-1,-1,-1,-1,-1,-1,-1,-1,-1,-1,-1,-1,-1,-1,-1,-1,-1,-1,-1,-1,-1,-1,-1,-1,-1,-1,-1,-1,-1,-1,-1,-1,-1,-1,-1,-1,-1,-1],"loss_changes":[2.1067982E4,5.9336074E3,8.547293E3,2.2548477E3,9.3764484E2,6.426125E3,8.8506445E2,1.8994277E3,1.1015166E3,2.5040045E2,3.333899E2,1.5572898E3,3.0308438E3,2.7939868E2,5.757217E2,2.1803906E2,1.951864E2,4.8536652E2,8.159551E2,1.890629E2,1.5748636E2,4.2268585E2,2.884585E2,3.365003E3,1.620738E3,1.387898E3,8.335991E2,2.3440356E2,1.3916766E2,2.585586E2,1.7448735E2,1.4907422E2,2.471792E2,0E0,8.4601074E1,3.0335815E1,1.4359647E2,2.1135449E2,4.774878E2,0E0,1.1977864E2,5.025687E1,5.1112366E1,1.6500989E2,1.494212E2,3.0559814E1,4.229355E1,2.1226782E2,9.778706E2,1.4550533E3,1.3878037E3,5.5169995E2,1.2374185E2,2.4705322E2,4.886392E1,1.5003033E2,1.9837457E2,2.6434631E1,4.2044136E1,3.01386E2,2.071499E2,4.953418E1,8.989633E1,0E0,0E0,0E0,0E0,0E0,0E0,0E0,0E0,0E0,0E0,0E0,0E0,0E0,0E0,0E0,0E0,0E0,0E0,0E0,0E0,0E0,0E0,0E0,0E0,0E0,0E0,0E0,0E0,0E0,0E0,0E0,0E0,0E0,0E0,0E0,0E0,0E0,0E0,0E0,0E0,0E0,0E0,0E0,0E0,0E0,0E0,0E0,0E0,0E0,0E0,0E0,0E0,0E0,0E0,0E0,0E0,0E0,0E0,0E0,0E0],"parents":[2147483647,0,0,1,1,2,2,3,3,4,4,5,5,6,6,7,7,8,8,9,9,10,10,11,11,12,12,13,13,14,14,15,15,16,16,17,17,18,18,19,19,20,20,21,21,22,22,23,23,24,24,25,25,26,26,27,27,28,28,29,29,30,30,31,31,32,32,34,34,35,35,36,36,37,37,38,38,40,40,41,41,42,42,43,43,44,44,45,45,46,46,47,47,48,48,49,49,50,50,51,51,52,52,53,53,54,54,55,55,56,56,57,57,58,58,59,59,60,60,61,61,62,62],"right_children":[2,4,6,8,10,12,14,16,18,20,22,24,26,28,30,32,34,36,38,40,42,44,46,48,50,52,54,56,58,60,62,64,66,-1,68,70,72,74,76,-1,78,80,82,84,86,88,90,92,94,96,98,100,102,104,106,108,110,112,114,116,118,120,122,-1,-1,-1,-1,-1,-1,-1,-1,-1,-1,-1,-1,-1,-1,-1,-1,-1,-1,-1,-1,-1,-1,-1,-1,-1,-1,-1,-1,-1,-1,-1,-1,-1,-1,-1,-1,-1,-1,-1,-1,-1,-1,-1,-1,-1,-1,-1,-1,-1,-1,-1,-1,-1,-1,-1,-1,-1,-1,-1,-1],"split_conditions":[-1E0,1.1E0,2.6E0,-2E0,4.02E1,3.46E2,4.1E0,-1.75E-2,5E0,1.68E2,5.26E1,-3E-1,1.7E0,7.547E-1,1.24E1,-2.5E0,-3.6E0,1.56E2,1.97E2,-1.8E0,3.4E0,1.61E1,8.66E-1,4.29E1,9E0,3.6E2,5.16E1,-2.079E-1,5.45E1,3.32E1,1.26E2,-5.3E0,5E0,-2.2981E-4,4.93E1,-3.1E0,1.87E2,5.53E1,7E0,-2.3641482E-1,1.16E2,9E0,1.17E1,2.1E0,-1.8E0,5.5E1,2.3E0,3.51E1,7.071E-1,1.8E0,1.31E2,-0E0,4E-1,2.6E0,1.15E1,3.35E1,8E0,5.04E1,5.63E1,-2E-1,1.42E2,5E-1,5.16E1,-9.1216534E-1,-5.516458E-1,-2.333984E-1,-4.8877722E-1,-2.882463E-1,-1.6907074E-1,-2.8693402E-1,-1.8061356E-1,-8.095871E-2,4.9803685E-2,-1.9561939E-1,-3.5223746E-1,3.1147609E-2,-3.8813192E-1,8.7872855E-2,-3.4017973E-2,-4.903836E-2,1.032676E-1,1.3966534E-1,-2.2290029E-2,-1.7128739E-1,-8.480567E-2,-2.9787192E-2,1.5224454E-1,-2.5597334E-1,-4.0549323E-1,-9.293523E-2,8.2796946E-2,4.146507E-2,-1.09257875E-2,-2.1034388E-1,1.7025594E-3,-5.73614E-2,-4.3129268E-1,8.367701E-2,1.5157546E-2,-1.491708E-1,-6.6381276E-2,2.432189E-2,1.2815301E-1,-2.816572E-1,-4.163034E-1,-6.0140442E-2,8.893385E-2,3.3386324E-2,8.4835954E-2,6.5570176E-2,-3.4990427E-3,1.1893302E-1,2.1851318E-1,-1.4536084E-1,3.1105954E-2,1.534376E-1,7.261785E-2,1.429878E-1,1.03263296E-1,1.5831621E-1,2.5966723E-2,1.6895695E-2,-6.395924E-2],"split_indices":[1,14,14,1,13,5,14,9,3,5,13,1,1,9,2,1,1,5,5,1,14,2,12,13,5,5,13,9,6,6,5,14,3,0,6,14,5,13,3,0,5,3,2,14,1,13,14,13,9,1,5,12,1,1,2,6,3,6,6,1,5,1,13,0,0,0,0,0,0,0,0,0,0,0,0,0,0,0,0,0,0,0,0,0,0,0,0,0,0,0,0,0,0,0,0,0,0,0,0,0,0,0,0,0,0,0,0,0,0,0,0,0,0,0,0,0,0,0,0,0,0,0,0],"split_type":[0,0,0,0,0,0,0,0,0,0,0,0,0,0,0,0,0,0,0,0,0,0,0,0,0,0,0,0,0,0,0,0,0,0,0,0,0,0,0,0,0,0,0,0,0,0,0,0,0,0,0,0,0,0,0,0,0,0,0,0,0,0,0,0,0,0,0,0,0,0,0,0,0,0,0,0,0,0,0,0,0,0,0,0,0,0,0,0,0,0,0,0,0,0,0,0,0,0,0,0,0,0,0,0,0,0,0,0,0,0,0,0,0,0,0,0,0,0,0,0,0,0,0],"sum_hessian":[1.2169E4,1.332E3,1.0837E4,7.79E2,5.53E2,6.909E3,3.928E3,2.34E2,5.45E2,2.25E2,3.28E2,5.766E3,1.143E3,1.258E3,2.67E3,1.45E2,8.9E1,1.49E2,3.96E2,1.36E2,8.9E1,2.78E2,5E1,1.125E3,4.641E3,9.34E2,2.09E2,1.114E3,1.44E2,2.479E3,1.91E2,7.5E1,7E1,9E0,8E1,6.6E1,8.3E1,2.63E2,1.33E2,9E0,1.27E2,2.9E1,6E1,2.33E2,4.5E1,3.8E1,1.2E1,7.72E2,3.53E2,2.29E2,4.412E3,8.18E2,1.16E2,1.89E2,2E1,5.72E2,5.42E2,1.32E2,1.2E1,9.86E2,1.493E3,3.3E1,1.58E2,5E0,7E1,1.5E1,5.5E1,5E1,3E1,1.2E1,5.4E1,4.6E1,3.7E1,2.38E2,2.5E1,7E0,1.26E2,2.4E1,1.03E2,2.3E1,6E0,5.5E1,5E0,9.8E1,1.35E2,2.7E1,1.8E1,2.9E1,9E0,7E0,5E0,3.96E2,3.76E2,2.86E2,6.7E1,2E2,2.9E1,9.38E2,3.474E3,3.68E2,4.5E2,5.4E1,6.2E1,1.33E2,5.6E1,1E1,1E1,2.75E2,2.97E2,1.39E2,4.03E2,1.24E2,8E0,5E0,7E0,1.34E2,8.52E2,5.14E2,9.79E2,2.2E1,1.1E1,1.09E2,4.9E1],"tree_param":{"num_deleted":"0","num_feature":"15","num_nodes":"123","size_leaf_vector":"1"}},{"base_weights":[2.4766436E-2,1.3674564E0,-4.5675306E0,2.41003E0,1.3320567E-1,-3.315679E0,-8.272633E0,3.052752E0,1.865615E0,8.632621E-1,-5.343922E-1,-2.4795516E0,-4.8222203E0,-7.6034536E0,-1.3979394E1,2.3640518E0,3.4456909E0,1.3480687E0,2.505445E0,3.1469744E-1,1.1762878E0,-2.8777003E-1,-1.2394532E0,-1.9078248E0,-3.112393E0,-4.353974E0,-5.3334527E0,-7.1397057E0,-9.633959E0,-6.300356E-1,-8.429999E-1,2.1372983E0,3.0390575E0,2.3124926E0,3.5526626E0,2.5438538E0,1.2663223E0,2.227852E0,4.1236153E0,-2.871816E-1,8.517072E-1,8.5425234E-1,1.5890583E0,-5.6007314E-1,2.5569844E-1,-2.2975287E0,-7.5876886E-1,-2.1316116E0,-3.6401677E-1,-3.9711125E0,-2.5006351E0,-3.590216E0,-4.8981285E0,-4.427934E0,-6.2073817E0,-8.269758E0,-6.7278314E0,-5.1341677E-1,-7.7240076E0,1.3121854E-1,9.859826E-2,1.3210513E-1,2.0042582E-1,1.02790676E-1,1.7372811E-1,2.0007133E-1,1.6738887E-1,1.12599306E-1,2.113198E-1,7.403298E-2,4.3937866E-2,6.670743E-2,1.1624473E-1,1.8727575E-1,5.83878E-1,7.435601E-3,-3.1658117E-2,3.639112E-2,1.7715262E-1,6.0868125E-2,2.5441868E-2,6.946569E-2,1.3098526E-1,-1.1384601E-2,-6.493558E-2,8.1805524E-4,7.428316E-2,-1.2175492E-1,1.4160965E-3,-2.5930414E-2,-1.1248084E-1,-9.211663E-2,-1.4456254E-1,3.298515E-2,-3.6613915E-2,-2.4041703E-1,-1.5768172E-1,-8.5503794E-2,-1.4774072E-1,-2.834897E-1,-1.6471553E-1,-1.9110916E-2,-2.4999797E-1,-2.5697297E-1,-1.6449341E-1,-3.44185E-1,-2.5076798E-1,-3.633463E-1,-4.6334958E-1,-3.6409506E-1,-2.9003128E-1,-3.015715E-1,-4.6167502E-1],"categories":[],"categories_nodes":[],"categories_segments":[],"categories_sizes":[],"default_left":[0,0,0,0,0,0,0,0,0,0,0,0,0,0,0,0,0,0,0,0,0,0,0,0,0,0,0,0,0,0,0,0,0,0,0,0,0,0,0,0,0,0,0,0,0,0,0,0,0,0,0,0,0,0,0,0,0,0,0,0,0,0,0,0,0,0,0,0,0,0,0,0,0,0,0,0,0,0,0,0,0,0,0,0,0,0,0,0,0,0,0,0,0,0,0,0,0,0,0,0,0,0,0,0,0,0,0,0,0,0,0,0,0],"id":6,"left_children":[1,3,5,7,9,11,13,15,17,19,21,23,25,27,29,31,33,35,37,39,41,43,45,47,49,51,53,55,57,-1,-1,59,61,63,65,67,69,71,73,75,77,79,81,83,85,87,89,91,93,95,97,99,101,103,105,107,109,-1,111,-1,-1,-1,-1,-1,-1,-1,-1,-1,-1,-1,-1,-1,-1,-1,-1,-1,-1,-1,-1,-1,-1,-1,-1,-1,-1,-1,-1,-1,-1,-1,-1,-1,-1,-1,-1,-1,-1,-1,-1,-1,-1,-1,-1,-1,-1,-1,-1,-1,-1,-1,-1,-1,-1],"loss_changes":[7.432511E4,1.2001381E4,1.2619891E4,1.7629473E3,2.082599E3,2.5570195E3,2.518914E3,6.18291E2,9.035654E2,3.4995068E2,3.87599E2,4.6898145E2,1.4983984E2,5.1147656E2,6.657715E1,1.22322754E2,1.6975586E2,1.4468604E2,5.3998926E2,2.4044974E2,1.7107019E2,2.4509402E2,2.9192212E2,2.3839478E2,3.1617725E2,1.4157324E2,2.428877E2,1.7883984E2,5.459082E1,0E0,0E0,4.5581787E1,6.955884E1,3.10802E1,1.0944336E2,3.697809E1,1.1658765E2,8.733594E1,4.6311377E2,5.3077194E1,1.2802698E2,9.1018005E1,1.1289148E2,2.7034863E2,1.6261569E2,5.7903625E1,1.4141563E2,1.2714722E2,3.4043037E1,1.5993457E2,1.25894775E2,8.134424E1,9.963916E1,1.2152783E2,1.0294971E2,6.201172E1,1.501289E2,0E0,2.4540283E1,0E0,0E0,0E0,0E0,0E0,0E0,0E0,0E0,0E0,0E0,0E0,0E0,0E0,0E0,0E0,0E0,0E0,0E0,0E0,0E0,0E0,0E0,0E0,0E0,0E0,0E0,0E0,0E0,0E0,0E0,0E0,0E0,0E0,0E0,0E0,0E0,0E0,0E0,0E0,0E0,0E0,0E0,0E0,0E0,0E0,0E0,0E0,0E0,0E0,0E0,0E0,0E0,0E0,0E0],"parents":[2147483647,0,0,1,1,2,2,3,3,4,4,5,5,6,6,7,7,8,8,9,9,10,10,11,11,12,12,13,13,14,14,15,15,16,16,17,17,18,18,19,19,20,20,21,21,22,22,23,23,24,24,25,25,26,26,27,27,28,28,31,31,32,32,33,33,34,34,35,35,36,36,37,37,38,38,39,39,40,40,41,41,42,42,43,43,44,44,45,45,46,46,47,47,48,48,49,49,50,50,51,51,52,52,53,53,54,54,55,55,56,56,58,58],"right_children":[2,4,6,8,10,12,14,16,18,20,22,24,26,28,30,32,34,36,38,40,42,44,46,48,50,52,54,56,58,-1,-1,60,62,64,66,68,70,72,74,76,78,80,82,84,86,88,90,92,94,96,98,100,102,104,106,108,110,-1,112,-1,-1,-1,-1,-1,-1,-1,-1,-1,-1,-1,-1,-1,-1,-1,-1,-1,-1,-1,-1,-1,-1,-1,-1,-1,-1,-1,-1,-1,-1,-1,-1,-1,-1,-1,-1,-1,-1,-1,-1,-1,-1,-1,-1,-1,-1,-1,-1,-1,-1,-1,-1,-1,-1],"split_conditions":[9.2E0,3.5E0,1.68E1,2E0,5.3E0,1.26E1,2.66E1,-5.4E0,-1.9E0,-3.3E0,7.7E0,1.908E-1,-1.75E-2,2.25E1,3.09E1,4.4E0,-5.1E0,-7.071E-1,1.1E0,1.1E0,6.7E0,2.5E0,-5E-1,1.2E1,-7E-1,-2.588E-1,1.4E1,1.2E1,3.94E1,-6.300356E-1,-8.429999E-1,1E0,2.2E0,8.3E0,1E0,7.986E-1,2.9E0,-9.511E-1,2.2E1,4.1E0,1.34E1,4.2E0,9.613E-1,7.071E-1,1.52E1,9.925E-1,2.1E1,4.24E1,1.33E1,8.3E0,1.01E1,-9.563E-1,-2.4E0,1.99E1,2.21E1,-1.6E0,1.1E0,-5.1341677E-1,2.34E1,1.3121854E-1,9.859826E-2,1.3210513E-1,2.0042582E-1,1.02790676E-1,1.7372811E-1,2.0007133E-1,1.6738887E-1,1.12599306E-1,2.113198E-1,7.403298E-2,4.3937866E-2,6.670743E-2,1.1624473E-1,1.8727575E-1,5.83878E-1,7.435601E-3,-3.1658117E-2,3.639112E-2,1.7715262E-1,6.0868125E-2,2.5441868E-2,6.946569E-2,1.3098526E-1,-1.1384601E-2,-6.493558E-2,8.1805524E-4,7.428316E-2,-1.2175492E-1,1.4160965E-3,-2.5930414E-2,-1.1248084E-1,-9.211663E-2,-1.4456254E-1,3.298515E-2,-3.6613915E-2,-2.4041703E-1,-1.5768172E-1,-8.5503794E-2,-1.4774072E-1,-2.834897E-1,-1.6471553E-1,-1.9110916E-2,-2.4999797E-1,-2.5697297E-1,-1.6449341E-1,-3.44185E-1,-2.5076798E-1,-3.633463E-1,-4.6334958E-1,-3.6409506E-1,-2.9003128E-1,-3.015715E-1,-4.6167502E-1],"split_indices":[0,0,0,0,0,0,0,2,2,2,0,9,9,0,0,14,14,12,1,14,7,14,14,2,14,12,0,3,7,0,0,0,7,2,0,9,0,9,3,0,7,0,10,12,7,10,3,13,2,2,0,9,1,7,7,1,1,0,0,0,0,0,0,0,0,0,0,0,0,0,0,0,0,0,0,0,0,0,0,0,0,0,0,0,0,0,0,0,0,0,0,0,0,0,0,0,0,0,0,0,0,0,0,0,0,0,0,0,0,0,0,0,0],"split_type":[0,0,0,0,0,0,0,0,0,0,0,0,0,0,0,0,0,0,0,0,0,0,0,0,0,0,0,0,0,0,0,0,0,0,0,0,0,0,0,0,0,0,0,0,0,0,0,0,0,0,0,0,0,0,0,0,0,0,0,0,0,0,0,0,0,0,0,0,0,0,0,0,0,0,0,0,0,0,0,0,0,0,0,0,0,0,0,0,0,0,0,0,0,0,0,0,0,0,0,0,0,0,0,0,0,0,0,0,0,0,0,0,0],"sum_hessian":[1.2052E4,9.326E3,2.726E3,5.055E3,4.271E3,2.039E3,6.87E2,2.316E3,2.739E3,2.04E3,2.231E3,1.313E3,7.26E2,6.17E2,7E1,8.44E2,1.472E3,1.516E3,1.223E3,7.42E2,1.298E3,1.654E3,5.77E2,6.92E2,6.21E2,3.84E2,3.42E2,5.06E2,1.11E2,5.1E1,1.9E1,6.35E2,2.09E2,1.29E2,1.343E3,9.5E1,1.421E3,1.046E3,1.77E2,3.5E2,3.92E2,7.31E2,5.67E2,1.102E3,5.52E2,1.79E2,3.98E2,6.04E2,8.8E1,2.56E2,3.65E2,1.63E2,2.21E2,1.71E2,1.71E2,1.3E2,3.76E2,8E1,3.1E1,1.57E2,4.78E2,1.51E2,5.8E1,1.08E2,2.1E1,4.15E2,9.28E2,8.3E1,1.2E1,9.13E2,5.08E2,1.04E2,9.42E2,1.7E2,7E0,1.55E2,1.95E2,3.76E2,1.6E1,3.55E2,3.76E2,4.77E2,9E1,7.61E2,3.41E2,4.63E2,8.9E1,1.69E2,1E1,3.44E2,5.4E1,4.4E2,1.64E2,2.3E1,6.5E1,1.24E2,1.32E2,1.35E2,2.3E2,1.8E1,1.45E2,5E0,2.16E2,1.03E2,6.8E1,1.06E2,6.5E1,6.9E1,6.1E1,2.31E2,1.45E2,1.7E1,1.4E1],"tree_param":{"num_deleted":"0","num_feature":"15","num_nodes":"113","size_leaf_vector":"1"}},{"base_weights":[-3.2987077E-2,1.2634531E0,-4.3495517E0,2.1270127E0,-7.207608E-2,-3.2981308E0,-8.252652E0,2.8742492E0,1.6277621E0,4.6707523E-1,-8.020219E-1,-2.3969796E0,-4.69427E0,-7.324056E0,-1.198295E1,2.3414118E0,3.3440385E0,1.1413916E0,2.1370895E0,-2.5228782E-2,8.174546E-1,-2.081438E0,-6.3251084E-1,-1.9501866E0,-2.9083014E0,-4.3064632E0,-5.1465197E0,-6.2314715E0,-7.9434466E0,-5.5228865E-1,-8.115097E-1,1.9976728E0,2.7502823E0,2.355589E0,3.427389E0,9.161446E-1,1.6311349E0,1.9807919E0,3.5616863E0,-4.0145802E-1,6.8026406E-1,1.3196964E0,5.7218003E-1,-2.7685244E0,-1.4076922E0,-4.3284813E-1,-1.5233324E0,-2.126698E0,-6.6975397E-1,-3.7871933E0,-2.388018E0,-3.5387917E0,-4.9375067E0,-4.2910023E0,-5.7103143E0,-1.4040534E-1,-6.354603E0,-8.108413E0,-4.481644E0,1.2279264E-1,9.123506E-2,1.21748604E-1,1.7871471E-1,1.0287421E-1,1.7720388E-1,1.8302903E-1,1.5341614E-1,6.1551996E-2,3.1047104E-2,9.842505E-2,6.4060144E-2,1.1824574E-1,7.625377E-2,1.538915E-1,3.5307762E-1,6.815854E-2,-2.5590083E-2,1.0239104E-2,7.745795E-2,5.6022435E-2,1.5270008E-1,4.8151847E-2,3.142855E-3,-6.210658E-2,-1.4412294E-1,-5.3803947E-2,-1.2522198E-1,-3.4269672E-2,1.0897494E-2,-6.396213E-2,-1.3729307E-1,-1.1479038E-1,-2.779734E-2,5.7393713E-3,-5.5698324E-2,-2.32654E-1,-1.5008429E-1,-8.2291074E-2,-1.4553003E-1,-1.8648206E-1,-2.4896525E-2,-2.2943369E-1,-3.8676962E-1,-2.755397E-1,-1.8994765E-1,-3.2172033E-1,-2.3424701E-1,-3.2259873E-1,-1.7758328E-1,-4.2916194E-1,-3.5668287E-1,-4.1544467E-1,-9.8877035E-2],"categories":[],"categories_nodes":[],"categories_segments":[],"categories_sizes":[],"default_left":[0,0,0,0,0,0,0,0,0,0,0,0,0,0,0,0,0,0,0,0,0,0,0,0,0,0,0,0,0,0,0,0,0,0,0,0,0,0,0,0,0,0,0,0,0,0,0,0,0,0,0,0,0,0,0,0,0,0,0,0,0,0,0,0,0,0,0,0,0,0,0,0,0,0,0,0,0,0,0,0,0,0,0,0,0,0,0,0,0,0,0,0,0,0,0,0,0,0,0,0,0,0,0,0,0,0,0,0,0,0,0,0,0],"id":7,"left_children":[1,3,5,7,9,11,13,15,17,19,21,23,25,27,29,31,33,35,37,39,41,43,45,47,49,51,53,55,57,-1,-1,59,61,63,65,67,69,71,73,75,77,79,81,83,85,87,89,91,93,95,97,99,101,103,105,-1,107,109,111,-1,-1,-1,-1,-1,-1,-1,-1,-1,-1,-1,-1,-1,-1,-1,-1,-1,-1,-1,-1,-1,-1,-1,-1,-1,-1,-1,-1,-1,-1,-1,-1,-1,-1,-1,-1,-1,-1,-1,-1,-1,-1,-1,-1,-1,-1,-1,-1,-1,-1,-1,-1,-1,-1],"loss_changes":[6.801043E4,1.0779185E4,1.1491E4,2.1123496E3,1.4451348E3,2.772287E3,1.9713477E3,5.6033203E2,8.407256E2,3.644054E2,3.3673737E2,3.0157178E2,1.2895117E2,2.732422E2,2.8370508E2,1.4413281E2,9.062598E1,1.906372E2,3.624536E2,2.3355559E2,1.5106866E2,7.993683E1,2.4441931E2,1.6147607E2,2.765918E2,2.1081738E2,1.6502051E2,5.627002E1,1.3486719E2,0E0,0E0,4.1374023E1,1.1670801E2,2.6514465E1,8.095215E1,1.10320984E2,6.184729E1,2.5858105E2,2.5328125E2,1.1237927E2,1.259294E2,1.3576556E2,1.6526599E2,1.1485046E1,3.1134415E1,1.8558968E2,7.1283325E1,1.6684741E2,3.124456E1,1.4238452E2,1.4834619E2,1.2365527E2,2.1410303E2,7.4765625E1,1.4322217E2,0E0,2.2754395E1,7.003125E1,1.3588141E2,0E0,0E0,0E0,0E0,0E0,0E0,0E0,0E0,0E0,0E0,0E0,0E0,0E0,0E0,0E0,0E0,0E0,0E0,0E0,0E0,0E0,0E0,0E0,0E0,0E0,0E0,0E0,0E0,0E0,0E0,0E0,0E0,0E0,0E0,0E0,0E0,0E0,0E0,0E0,0E0,0E0,0E0,0E0,0E0,0E0,0E0,0E0,0E0,0E0,0E0,0E0,0E0,0E0,0E0],"parents":[2147483647,0,0,1,1,2,2,3,3,4,4,5,5,6,6,7,7,8,8,9,9,10,10,11,11,12,12,13,13,14,14,15,15,16,16,17,17,18,18,19,19,20,20,21,21,22,22,23,23,24,24,25,25,26,26,27,27,28,28,31,31,32,32,33,33,34,34,35,35,36,36,37,37,38,38,39,39,40,40,41,41,42,42,43,43,44,44,45,45,46,46,47,47,48,48,49,49,50,50,51,51,52,52,53,53,54,54,56,56,57,57,58,58],"right_children":[2,4,6,8,10,12,14,16,18,20,22,24,26,28,30,32,34,36,38,40,42,44,46,48,50,52,54,56,58,-1,-1,60,62,64,66,68,70,72,74,76,78,80,82,84,86,88,90,92,94,96,98,100,102,104,106,-1,108,110,112,-1,-1,-1,-1,-1,-1,-1,-1,-1,-1,-1,-1,-1,-1,-1,-1,-1,-1,-1,-1,-1,-1,-1,-1,-1,-1,-1,-1,-1,-1,-1,-1,-1,-1,-1,-1,-1,-1,-1,-1,-1,-1,-1,-1,-1,-1,-1,-1,-1,-1,-1,-1,-1,-1],"split_conditions":[9.2E0,4E0,1.76E1,2E0,6.2E0,1.26E1,2.45E1,-2.7E0,-2.3E0,-6E-1,-4.1E0,1.908E-1,-1.75E-2,2.93E1,3.09E1,2E0,-5.1E0,4.1E0,1.01E1,2.5E0,4.6E0,1E0,2.1E1,1.2E1,-1E0,-2.588E-1,1.38E1,-6.9E0,2.7E0,-5.5228865E-1,-8.115097E-1,1E0,2.2E0,7.8E0,1.5E0,2.8E0,2.9E0,3E0,4.65E1,-5E-1,7.4E0,9.563E-1,1.6E1,-2.5E1,4.067E-1,7.314E-1,8.2E0,2.48E1,-9E-1,8.3E0,1.04E1,5.47E1,1.67E1,4.42E1,4.98E1,-1.4040534E-1,1E0,3.69E1,1.8E1,1.2279264E-1,9.123506E-2,1.21748604E-1,1.7871471E-1,1.0287421E-1,1.7720388E-1,1.8302903E-1,1.5341614E-1,6.1551996E-2,3.1047104E-2,9.842505E-2,6.4060144E-2,1.1824574E-1,7.625377E-2,1.538915E-1,3.5307762E-1,6.815854E-2,-2.5590083E-2,1.0239104E-2,7.745795E-2,5.6022435E-2,1.5270008E-1,4.8151847E-2,3.142855E-3,-6.210658E-2,-1.4412294E-1,-5.3803947E-2,-1.2522198E-1,-3.4269672E-2,1.0897494E-2,-6.396213E-2,-1.3729307E-1,-1.1479038E-1,-2.779734E-2,5.7393713E-3,-5.5698324E-2,-2.32654E-1,-1.5008429E-1,-8.2291074E-2,-1.4553003E-1,-1.8648206E-1,-2.4896525E-2,-2.2943369E-1,-3.8676962E-1,-2.755397E-1,-1.8994765E-1,-3.2172033E-1,-2.3424701E-1,-3.2259873E-1,-1.7758328E-1,-4.2916194E-1,-3.5668287E-1,-4.1544467E-1,-9.8877035E-2],"split_indices":[0,0,0,0,0,0,0,2,2,2,14,9,9,7,0,14,14,14,7,14,0,8,3,2,14,12,0,14,14,0,0,0,7,2,0,0,0,0,13,12,7,10,3,2,9,10,0,7,14,2,0,13,0,6,6,0,10,7,3,0,0,0,0,0,0,0,0,0,0,0,0,0,0,0,0,0,0,0,0,0,0,0,0,0,0,0,0,0,0,0,0,0,0,0,0,0,0,0,0,0,0,0,0,0,0,0,0,0,0,0,0,0,0],"split_type":[0,0,0,0,0,0,0,0,0,0,0,0,0,0,0,0,0,0,0,0,0,0,0,0,0,0,0,0,0,0,0,0,0,0,0,0,0,0,0,0,0,0,0,0,0,0,0,0,0,0,0,0,0,0,0,0,0,0,0,0,0,0,0,0,0,0,0,0,0,0,0,0,0,0,0,0,0,0,0,0,0,0,0,0,0,0,0,0,0,0,0,0,0,0,0,0,0,0,0,0,0,0,0,0,0,0,0,0,0,0,0,0,0],"sum_hessian":[1.2151E4,9.345E3,2.806E3,5.675E3,3.67E3,2.212E3,5.94E2,2.271E3,3.404E3,2.111E3,1.559E3,1.346E3,8.66E2,4.78E2,1.16E2,1.067E3,1.204E3,1.743E3,1.661E3,8.78E2,1.233E3,1.81E2,1.378E3,7.21E2,6.25E2,4.72E2,3.94E2,1.77E2,3.01E2,9.8E1,1.8E1,5.83E2,4.84E2,9.6E1,1.108E3,1.196E3,5.47E2,1.499E3,1.62E2,5.73E2,3.05E2,4.03E2,8.3E2,8.8E1,9.3E1,1.127E3,2.51E2,6.33E2,8.8E1,2.3E2,3.95E2,2.16E2,2.56E2,1.6E2,2.34E2,7E0,1.7E2,2.86E2,1.5E1,1.56E2,4.27E2,3.53E2,1.31E2,7.9E1,1.7E1,6.66E2,4.42E2,5.77E2,6.19E2,2.76E2,2.71E2,8.11E2,6.88E2,1.44E2,1.8E1,3.3E1,5.4E2,1.98E2,1.07E2,3.63E2,4E1,4.69E2,3.61E2,7E0,8.1E1,7.3E1,2E1,8.12E2,3.15E2,2.11E2,4E1,5.71E2,6.2E1,3.2E1,5.6E1,1.07E2,1.23E2,1.65E2,2.3E2,2.03E2,1.3E1,2.3E2,2.6E1,4.3E1,1.17E2,1.34E2,1E2,1.63E2,7E0,1.87E2,9.9E1,5E0,1E1],"tree_param":{"num_deleted":"0","num_feature":"15","num_nodes":"113","size_leaf_vector":"1"}},{"base_weights":[3.6362999E-3,1.2194129E0,-4.1167784E0,2.0877514E0,3.9591506E-2,-2.9957595E0,-7.5162277E0,2.7584524E0,1.5869997E0,7.511671E-1,-4.8020107E-1,-2.2145262E0,-4.2721076E0,-6.6109266E0,-1.1366125E1,2.014048E0,3.0303388E0,1.0025501E0,2.0045466E0,3.9350766E-1,1.3378527E0,1.4286716E-1,-7.278327E-1,-1.776161E0,-2.7099297E0,-4.753114E0,-3.4845757E0,-5.819713E0,-7.4181914E0,-5.135002E-1,-7.755595E-1,1.951463E0,2.6462469E-1,3.486518E0,2.845954E0,8.5646886E-1,1.5265921E0,1.8535094E0,3.4822242E0,4.9018048E-2,1.01282E0,2.0577338E0,1.0067447E0,-1.3966765E-1,1.0313288E0,-4.6286008E-1,-1.4317957E0,-2.0255027E0,-4.9987105E-1,-3.4736986E0,-2.2014203E0,-5.5163403E0,-4.2952805E0,-2.6926117E0,-3.927885E0,-5.9579215E0,-2.7018058E0,-4.504325E0,-7.606559E0,1.1806758E-1,9.085924E-2,1.4357275E-1,1.8794759E-1,1.3531862E-1,1.7572556E-1,5.4651506E-2,2.6933411E-2,6.821388E-2,1.1050601E-1,1.0676068E-1,6.966735E-2,1.460542E-1,3.338213E-1,-1.9156663E-2,3.316147E-2,3.487471E-2,8.3549306E-2,2.1137428E-1,8.38573E-2,4.418261E-2,1.6420032E-1,1.5189672E-1,-9.9035E-3,1.3629094E-1,1.0133231E-3,-3.5551082E-2,1.4687464E-2,-1.0960382E-1,-4.779481E-2,-7.589601E-2,-1.2934265E-1,1.9929868E-3,-6.361251E-2,-2.1411477E-1,-1.395112E-1,-1.2549049E-1,-3.8005397E-2,-2.2534524E-1,-3.142756E-1,-2.3678665E-1,-1.7603855E-1,-7.156467E-2,-1.5006825E-1,-2.0622037E-1,-1.108642E-1,-2.3809712E-1,-3.1891128E-1,-5.90253E-2,-2.0200883E-1,-1.246621E-1,-2.7306765E-1,-4.2500788E-1,-3.5808337E-1],"categories":[],"categories_nodes":[],"categories_segments":[],"categories_sizes":[],"default_left":[0,0,0,0,0,0,0,0,0,0,0,0,0,0,0,0,0,0,0,0,0,0,0,0,0,0,0,0,0,0,0,0,0,0,0,0,0,0,0,0,0,0,0,0,0,0,0,0,0,0,0,0,0,0,0,0,0,0,0,0,0,0,0,0,0,0,0,0,0,0,0,0,0,0,0,0,0,0,0,0,0,0,0,0,0,0,0,0,0,0,0,0,0,0,0,0,0,0,0,0,0,0,0,0,0,0,0,0,0,0,0,0,0],"id":8,"left_children":[1,3,5,7,9,11,13,15,17,19,21,23,25,27,29,31,33,35,37,39,41,43,45,47,49,51,53,55,57,-1,-1,59,-1,61,63,65,67,69,71,73,75,77,79,81,83,85,87,89,91,93,95,97,99,101,103,105,107,109,111,-1,-1,-1,-1,-1,-1,-1,-1,-1,-1,-1,-1,-1,-1,-1,-1,-1,-1,-1,-1,-1,-1,-1,-1,-1,-1,-1,-1,-1,-1,-1,-1,-1,-1,-1,-1,-1,-1,-1,-1,-1,-1,-1,-1,-1,-1,-1,-1,-1,-1,-1,-1,-1,-1],"loss_changes":[6.0795055E4,9.600145E3,1.0513422E4,1.8081309E3,1.4702579E3,2.0649082E3,2.3105078E3,4.6011328E2,7.5249023E2,3.5140137E2,3.5456982E2,2.7553564E2,2.8149316E2,3.1127148E2,4.2423242E2,1.161604E2,1.3134082E2,9.7283936E1,3.954131E2,2.2257806E2,1.4897961E2,1.6440115E2,3.0580463E2,2.1799731E2,2.2675781E2,1.4549902E2,9.514038E1,1.0628027E2,1.1382129E2,0E0,0E0,2.886499E1,0E0,6.91416E1,1.0250195E2,7.532953E1,2.7692383E1,2.0900537E2,2.7707568E2,1.7865256E2,7.600888E1,1.566499E2,1.191785E2,9.2550705E1,2.7036124E2,2.2481311E2,1.6004584E2,1.5978345E2,4.7697914E1,1.1998169E2,1.604469E2,1.0957324E2,8.791113E1,3.8877686E1,5.4766113E1,1.05743164E2,2.3213348E1,2.2156647E1,3.8538086E1,0E0,0E0,0E0,0E0,0E0,0E0,0E0,0E0,0E0,0E0,0E0,0E0,0E0,0E0,0E0,0E0,0E0,0E0,0E0,0E0,0E0,0E0,0E0,0E0,0E0,0E0,0E0,0E0,0E0,0E0,0E0,0E0,0E0,0E0,0E0,0E0,0E0,0E0,0E0,0E0,0E0,0E0,0E0,0E0,0E0,0E0,0E0,0E0,0E0,0E0,0E0,0E0,0E0,0E0],"parents":[2147483647,0,0,1,1,2,2,3,3,4,4,5,5,6,6,7,7,8,8,9,9,10,10,11,11,12,12,13,13,14,14,15,15,16,16,17,17,18,18,19,19,20,20,21,21,22,22,23,23,24,24,25,25,26,26,27,27,28,28,31,31,33,33,34,34,35,35,36,36,37,37,38,38,39,39,40,40,41,41,42,42,43,43,44,44,45,45,46,46,47,47,48,48,49,49,50,50,51,51,52,52,53,53,54,54,55,55,56,56,57,57,58,58],"right_children":[2,4,6,8,10,12,14,16,18,20,22,24,26,28,30,32,34,36,38,40,42,44,46,48,50,52,54,56,58,-1,-1,60,-1,62,64,66,68,70,72,74,76,78,80,82,84,86,88,90,92,94,96,98,100,102,104,106,108,110,112,-1,-1,-1,-1,-1,-1,-1,-1,-1,-1,-1,-1,-1,-1,-1,-1,-1,-1,-1,-1,-1,-1,-1,-1,-1,-1,-1,-1,-1,-1,-1,-1,-1,-1,-1,-1,-1,-1,-1,-1,-1,-1,-1,-1,-1,-1,-1,-1,-1,-1,-1,-1,-1,-1],"split_conditions":[9.2E0,3.8E0,1.68E1,2E0,5.3E0,1.25E1,2.34E1,-7.7E0,-4.5E0,6.7E0,-5E-1,1.908E-1,3.26E2,1.92E1,2.91E1,9.3E0,1E0,5E0,1.01E1,4.1E1,-5E-1,8.09E-1,7.7E0,9.9E0,-7E-1,4.6E1,-5E-1,3.96E1,-6.4E0,-5.135002E-1,-7.755595E-1,1E0,2.6462469E-1,7E-1,6.9E0,2.9E0,3.8E0,3E0,4.65E1,2.5E0,-5.446E-1,-4E-1,1.79E1,-9.994E-1,9.781E-1,2.5E0,-7E-1,1.07E1,1.09E1,8E0,3E0,4.06E1,1.4E0,-1.2E0,4.7E0,2E0,1.72E1,7E0,3.87E1,1.1806758E-1,9.085924E-2,1.4357275E-1,1.8794759E-1,1.3531862E-1,1.7572556E-1,5.4651506E-2,2.6933411E-2,6.821388E-2,1.1050601E-1,1.0676068E-1,6.966735E-2,1.460542E-1,3.338213E-1,-1.9156663E-2,3.316147E-2,3.487471E-2,8.3549306E-2,2.1137428E-1,8.38573E-2,4.418261E-2,1.6420032E-1,1.5189672E-1,-9.9035E-3,1.3629094E-1,1.0133231E-3,-3.5551082E-2,1.4687464E-2,-1.0960382E-1,-4.779481E-2,-7.589601E-2,-1.2934265E-1,1.9929868E-3,-6.361251E-2,-2.1411477E-1,-1.395112E-1,-1.2549049E-1,-3.8005397E-2,-2.2534524E-1,-3.142756E-1,-2.3678665E-1,-1.7603855E-1,-7.156467E-2,-1.5006825E-1,-2.0622037E-1,-1.108642E-1,-2.3809712E-1,-3.1891128E-1,-5.90253E-2,-2.0200883E-1,-1.246621E-1,-2.7306765E-1,-4.2500788E-1,-3.5808337E-1],"split_indices":[0,0,0,0,0,0,0,2,2,7,12,9,5,0,0,14,0,14,7,6,12,10,0,2,14,6,12,7,14,0,0,0,0,14,7,0,7,0,13,14,10,2,7,9,10,14,14,0,0,2,4,13,14,14,2,4,0,5,13,0,0,0,0,0,0,0,0,0,0,0,0,0,0,0,0,0,0,0,0,0,0,0,0,0,0,0,0,0,0,0,0,0,0,0,0,0,0,0,0,0,0,0,0,0,0,0,0,0,0,0,0,0,0],"split_type":[0,0,0,0,0,0,0,0,0,0,0,0,0,0,0,0,0,0,0,0,0,0,0,0,0,0,0,0,0,0,0,0,0,0,0,0,0,0,0,0,0,0,0,0,0,0,0,0,0,0,0,0,0,0,0,0,0,0,0,0,0,0,0,0,0,0,0,0,0,0,0,0,0,0,0,0,0,0,0,0,0,0,0,0,0,0,0,0,0,0,0,0,0,0,0,0,0,0,0,0,0,0,0,0,0,0,0,0,0,0,0,0,0],"sum_hessian":[1.2134E4,9.37E3,2.764E3,5.397E3,3.973E3,2.08E3,6.84E2,2.305E3,3.092E3,1.677E3,2.296E3,1.292E3,7.88E2,5.56E2,1.28E2,6.19E2,1.686E3,1.29E3,1.802E3,1.043E3,6.34E2,6.53E2,1.643E3,6.88E2,6.04E2,4.86E2,3.02E2,2.85E2,2.71E2,1.04E2,2.4E1,6.09E2,1E1,4.8E2,1.206E3,1.011E3,2.79E2,1.637E3,1.65E2,6.71E2,3.72E2,1.98E2,4.36E2,4.96E2,1.57E2,1.195E3,4.48E2,5.75E2,1.13E2,2.39E2,3.65E2,1.78E2,3.08E2,1.11E2,1.91E2,2.72E2,1.3E1,1.8E1,2.53E2,1.46E2,4.63E2,1.51E2,3.29E2,1.002E3,2.04E2,5.78E2,4.33E2,2.28E2,5.1E1,1.013E3,6.24E2,1.42E2,2.3E1,3.94E2,2.77E2,2.53E2,1.19E2,2.8E1,1.7E2,4.15E2,2.1E1,8E0,4.88E2,5.8E1,9.9E1,9E2,2.95E2,1.71E2,2.77E2,3.04E2,2.71E2,6.7E1,4.6E1,1.07E2,1.32E2,3E2,6.5E1,8E1,9.8E1,1.93E2,1.15E2,2.3E1,8.8E1,1.7E2,2.1E1,7.4E1,1.98E2,7E0,6E0,7E0,1.1E1,7.8E1,1.75E2],"tree_param":{"num_deleted":"0","num_feature":"15","num_nodes":"113","size_leaf_vector":"1"}},{"base_weights":[-6.6872975E-3,1.1033106E0,-3.2854974E0,1.9307617E0,6.77376E-1,-2.2677972E0,-6.2933464E0,1.4044099E0,2.25685E0,8.6859256E-1,-3.7255076E-1,-4.262875E-1,-2.7241158E0,-7.589262E0,-4.458405E0,1.6392347E0,9.581238E-1,2.03521E0,2.6673431E0,1.6222394E-1,1.1357017E0,2.517608E-1,-9.7493595E-1,-7.06147E-3,-2.0569623E0,-2.279395E0,-3.7941415E0,-7.227184E0,-1.2101249E1,-9.07446E0,-3.8815985E0,1.4999961E0,2.4766114E0,8.039143E-1,1.1914991E0,1.4061911E0,2.310483E0,1.9278727E-1,2.5330923E0,3.2688734E-1,-1.6242723E0,8.598472E-1,1.9246746E0,1.8951156E0,-2.3228864E-1,-1.1299989E0,4.127107E0,4.7915807E-1,-1.4667414E0,-2.89582E0,2.1547787E0,-2.9393594E0,-1.412041E0,-5.157918E0,-2.9336216E0,-6.2625766E0,-8.1347475E0,-7.135929E-1,-9.859682E0,-4.86425E-1,-2.1375899E-1,-4.339783E0,-5.5097944E-1,9.562189E-2,6.66083E-2,1.8059888E-1,1.0540154E-1,7.849449E-2,3.7383854E-2,1.0041958E-1,5.4622617E-2,6.613878E-2,1.8193994E-1,1.3850105E-1,1.03682555E-1,1.2253459E-1,1.731434E-1,4.1967165E-3,4.7716975E-2,-5.2124154E-2,-1.4507812E-1,8.522342E-3,5.0283678E-2,1.4956076E-1,7.5067736E-2,4.4828826E-3,1.3000485E-1,-5.340736E-2,1.9245772E-2,-1.0851677E-1,-2.5655547E-2,1.2517594E-1,2.3699103E-1,6.309031E-2,-1.0987184E-2,-9.336202E-2,1.1893042E-1,-6.521662E-2,-1.8794833E-1,5.6072153E-2,1.4113842E-1,-1.5803543E-1,-7.16019E-2,-3.1773426E-2,-1.2408238E-1,-2.9423425E-1,-2.0961542E-1,-1.5174155E-1,1.08508706E-1,-3.20283E-1,-1.1879994E-1,-5.4322666E-1,-3.813663E-1,-5.5707926E-1,-3.028097E-1,-1.797444E-1,-3.156E-1,5.4055937E-2,-2.7892545E-1],"categories":[],"categories_nodes":[],"categories_segments":[],"categories_sizes":[],"default_left":[0,0,0,0,0,0,0,0,0,0,0,0,0,0,0,0,0,0,0,0,0,0,0,0,0,0,0,0,0,0,0,0,0,0,0,0,0,0,0,0,0,0,0,0,0,0,0,0,0,0,0,0,0,0,0,0,0,0,0,0,0,0,0,0,0,0,0,0,0,0,0,0,0,0,0,0,0,0,0,0,0,0,0,0,0,0,0,0,0,0,0,0,0,0,0,0,0,0,0,0,0,0,0,0,0,0,0,0,0,0,0,0,0,0,0,0,0,0,0],"id":9,"left_children":[1,3,5,7,9,11,13,15,17,19,21,23,25,27,29,31,33,35,37,39,41,43,45,47,49,51,53,55,57,59,61,63,65,67,69,71,73,-1,75,77,79,81,83,85,87,89,91,93,95,97,99,101,103,105,107,109,111,-1,113,-1,-1,115,117,-1,-1,-1,-1,-1,-1,-1,-1,-1,-1,-1,-1,-1,-1,-1,-1,-1,-1,-1,-1,-1,-1,-1,-1,-1,-1,-1,-1,-1,-1,-1,-1,-1,-1,-1,-1,-1,-1,-1,-1,-1,-1,-1,-1,-1,-1,-1,-1,-1,-1,-1,-1,-1,-1,-1,-1],"loss_changes":[4.397595E4,3.1799072E3,9.339559E3,5.22876E2,1.1971238E3,1.9186426E3,1.8007207E3,1.21413086E2,1.6623926E2,9.5118677E2,3.4593167E2,3.1082678E2,8.620488E2,6.4740625E2,8.208281E2,8.554932E1,1.3526001E1,2.0987646E2,9.489307E1,4.078274E2,7.944175E2,3.6015665E2,3.7461652E2,2.584317E2,3.348877E2,7.372739E2,6.130864E2,3.1530273E2,1.2568848E1,6.687109E1,4.3661865E2,4.2951538E1,3.7008972E1,9.32048E0,1.0441559E1,6.5087036E1,8.693262E1,0E0,3.6583984E1,1.9326418E2,8.3525055E1,2.724563E2,4.2261865E2,1.3059781E2,1.8104285E2,2.906239E2,1.3365784E0,1.4971085E2,1.4453558E2,1.0173828E2,7.484123E0,2.4024268E2,4.649237E2,1.1888721E2,1.7765063E2,9.9572266E1,2.1032031E2,0E0,2.3442993E1,0E0,0E0,3.479995E2,3.0187592E2,0E0,0E0,0E0,0E0,0E0,0E0,0E0,0E0,0E0,0E0,0E0,0E0,0E0,0E0,0E0,0E0,0E0,0E0,0E0,0E0,0E0,0E0,0E0,0E0,0E0,0E0,0E0,0E0,0E0,0E0,0E0,0E0,0E0,0E0,0E0,0E0,0E0,0E0,0E0,0E0,0E0,0E0,0E0,0E0,0E0,0E0,0E0,0E0,0E0,0E0,0E0,0E0,0E0,0E0,0E0,0E0],"parents":[2147483647,0,0,1,1,2,2,3,3,4,4,5,5,6,6,7,7,8,8,9,9,10,10,11,11,12,12,13,13,14,14,15,15,16,16,17,17,18,18,19,19,20,20,21,21,22,22,23,23,24,24,25,25,26,26,27,27,28,28,29,29,30,30,31,31,32,32,33,33,34,34,35,35,36,36,38,38,39,39,40,40,41,41,42,42,43,43,44,44,45,45,46,46,47,47,48,48,49,49,50,50,51,51,52,52,53,53,54,54,55,55,56,56,58,58,61,61,62,62],"right_children":[2,4,6,8,10,12,14,16,18,20,22,24,26,28,30,32,34,36,38,40,42,44,46,48,50,52,54,56,58,60,62,64,66,68,70,72,74,-1,76,78,80,82,84,86,88,90,92,94,96,98,100,102,104,106,108,110,112,-1,114,-1,-1,116,118,-1,-1,-1,-1,-1,-1,-1,-1,-1,-1,-1,-1,-1,-1,-1,-1,-1,-1,-1,-1,-1,-1,-1,-1,-1,-1,-1,-1,-1,-1,-1,-1,-1,-1,-1,-1,-1,-1,-1,-1,-1,-1,-1,-1,-1,-1,-1,-1,-1,-1,-1,-1,-1,-1,-1,-1],"split_conditions":[1.41E1,3.4E0,2.73E1,-7E0,1.14E1,-3.42E-1,-1E-1,2.7E0,1E0,-4.7E0,1.392E-1,1E0,2.13E1,4.52E1,-5.446E-1,5.5E0,2.7E0,2E0,1.6E0,9.8E0,8E-1,-7.071E-1,9.397E-1,2.26E1,5E-1,1.89E2,-1E0,3.18E1,-4.848E-1,1.37E1,3.5E0,1.6E0,0E0,-5E-1,-5E-1,1E0,1.8E0,1.9278727E-1,3.18E2,3.8E0,3.34E1,-8.66E-1,1.25E2,-2.1E0,1.3E0,-6E-1,2E-1,3.2E2,1.41E1,-5E0,2.3E0,1.41E1,1.79E1,1.1E0,5.3E0,2.8E0,-5.446E-1,-7.135929E-1,1.3E0,-4.86425E-1,-2.1375899E-1,3.27E1,1E0,9.562189E-2,6.66083E-2,1.8059888E-1,1.0540154E-1,7.849449E-2,3.7383854E-2,1.0041958E-1,5.4622617E-2,6.613878E-2,1.8193994E-1,1.3850105E-1,1.03682555E-1,1.2253459E-1,1.731434E-1,4.1967165E-3,4.7716975E-2,-5.2124154E-2,-1.4507812E-1,8.522342E-3,5.0283678E-2,1.4956076E-1,7.5067736E-2,4.4828826E-3,1.3000485E-1,-5.340736E-2,1.9245772E-2,-1.0851677E-1,-2.5655547E-2,1.2517594E-1,2.3699103E-1,6.309031E-2,-1.0987184E-2,-9.336202E-2,1.1893042E-1,-6.521662E-2,-1.8794833E-1,5.6072153E-2,1.4113842E-1,-1.5803543E-1,-7.16019E-2,-3.1773426E-2,-1.2408238E-1,-2.9423425E-1,-2.0961542E-1,-1.5174155E-1,1.08508706E-1,-3.20283E-1,-1.1879994E-1,-5.4322666E-1,-3.813663E-1,-5.5707926E-1,-3.028097E-1,-1.797444E-1,-3.156E-1,5.4055937E-2,-2.7892545E-1],"split_indices":[7,7,7,2,7,9,14,7,8,2,9,8,7,7,9,14,14,14,7,7,1,11,9,7,11,5,14,7,9,2,14,7,1,11,1,1,7,0,5,14,13,9,5,2,14,14,14,5,2,2,14,2,7,1,14,1,9,0,2,0,0,7,8,0,0,0,0,0,0,0,0,0,0,0,0,0,0,0,0,0,0,0,0,0,0,0,0,0,0,0,0,0,0,0,0,0,0,0,0,0,0,0,0,0,0,0,0,0,0,0,0,0,0,0,0,0,0,0,0],"split_type":[0,0,0,0,0,0,0,0,0,0,0,0,0,0,0,0,0,0,0,0,0,0,0,0,0,0,0,0,0,0,0,0,0,0,0,0,0,0,0,0,0,0,0,0,0,0,0,0,0,0,0,0,0,0,0,0,0,0,0,0,0,0,0,0,0,0,0,0,0,0,0,0,0,0,0,0,0,0,0,0,0,0,0,0,0,0,0,0,0,0,0,0,0,0,0,0,0,0,0,0,0,0,0,0,0,0,0,0,0,0,0,0,0,0,0,0,0,0,0],"sum_hessian":[1.2081E4,9.026E3,3.055E3,3.066E3,5.96E3,2.284E3,7.71E2,1.175E3,1.891E3,5.042E3,9.18E2,4.54E2,1.83E3,4.5E2,3.21E2,7.68E2,4.07E2,1.232E3,6.59E2,1.384E3,3.658E3,4.51E2,4.67E2,3.62E2,9.2E1,1.295E3,5.35E2,4.19E2,3.1E1,3.4E1,2.87E2,6.61E2,1.07E2,2.48E2,1.59E2,3.77E2,8.55E2,6.4E1,5.95E2,1.268E3,1.16E2,2.712E3,9.46E2,1.02E2,3.49E2,4.54E2,1.3E1,2.72E2,9E1,7.7E1,1.5E1,7.34E2,5.61E2,2.05E2,3.3E2,2.07E2,2.12E2,1.3E1,1.8E1,2.9E1,5E0,2.52E2,3.5E1,1.88E2,4.73E2,2.4E1,8.3E1,1.5E1,2.33E2,1.5E1,1.44E2,3.65E2,1.2E1,2.87E2,5.68E2,5.5E2,4.5E1,9.15E2,3.53E2,8.1E1,3.5E1,4.74E2,2.238E3,2.67E2,6.79E2,2.9E1,7.3E1,1.48E2,2.01E2,1.68E2,2.86E2,5E0,8E0,1.28E2,1.44E2,8.2E1,8E0,2.8E1,4.9E1,7E0,8E0,6.39E2,9.5E1,3.26E2,2.35E2,1.14E2,9.1E1,3.24E2,6E0,1.99E2,8E0,3E1,1.82E2,1.2E1,6E0,1.85E2,6.7E1,2.7E1,8E0],"tree_param":{"num_deleted":"0","num_feature":"15","num_nodes":"119","size_leaf_vector":"1"}},{"base_weights":[1.613497E-2,1.0949485E0,-3.8252923E0,1.9179245E0,-1.4939985E-2,-2.7927775E0,-6.7897143E0,2.5196562E0,1.4774612E0,4.3823427E-1,-6.5265065E-1,-2.030088E0,-3.7008367E0,-5.983525E0,-1.0397603E1,2.2548225E0,2.9952183E0,1.3674523E0,3.2036915E0,9.1996664E-1,2.2777417E-1,-1.8369135E0,-4.9493524E-1,-1.6283555E0,-2.5140822E0,-3.1922247E0,-4.1414843E0,-5.229525E0,-6.542321E0,-9.631726E0,-7.300306E-1,1.9765371E0,2.8737695E0,1.8893124E0,3.1841192E0,1.1058068E0,2.023412E0,2.7764816E0,5.4173274E0,8.3188E-1,4.687989E0,6.7569625E-1,-7.836843E-2,-2.1789777E0,-2.0807782E-1,-7.4124795E-1,3.50543E-1,-9.3355685E-1,-2.0840342E0,-3.3467147E0,-2.0019453E0,-4.46244E0,-2.958847E0,-3.5654974E0,-4.9219213E0,-5.6743407E0,-3.94912E0,-5.535381E0,-6.922835E0,-2.917765E-1,-9.838105E0,8.884456E-2,1.2485951E-1,2.0641766E-1,1.2841293E-1,5.018278E-2,1.0166862E-1,1.4792626E-1,1.8319182E-1,3.8031336E-2,6.917042E-2,1.17814556E-1,7.454137E-2,1.6487817E-1,7.9149716E-2,2.0046103E-1,4.6278873E-1,2.5995081E-2,6.4384624E-2,3.3282435E-1,1.4156209E-1,7.927476E-2,1.5429901E-2,-1.6158765E-2,3.3308115E-2,-8.3707E-2,-1.2939937E-1,-5.989632E-2,6.775592E-2,-3.996517E-2,1.6867986E-1,4.462513E-2,-2.766411E-2,-1.935957E-2,-1.03150584E-1,-1.1587669E-1,-4.1453075E-2,-1.0204277E-1,-1.8161222E-1,-1.1509436E-1,-3.654819E-2,-1.6877963E-1,-2.8084138E-1,-1.4466524E-1,-2.7219832E-1,-1.3265245E-1,-2.002187E-1,-2.8101665E-1,-1.8943167E-1,-3.3102688E-1,-2.3686369E-1,-4.954248E-3,-2.201265E-1,-3.8301834E-1,-2.475123E-1,-3.7643787E-1,-2.7462995E-1,-4.2361328E-1,-5.359042E-1],"categories":[],"categories_nodes":[],"categories_segments":[],"categories_sizes":[],"default_left":[0,0,0,0,0,0,0,0,0,0,0,0,0,0,0,0,0,0,0,0,0,0,0,0,0,0,0,0,0,0,0,0,0,0,0,0,0,0,0,0,0,0,0,0,0,0,0,0,0,0,0,0,0,0,0,0,0,0,0,0,0,0,0,0,0,0,0,0,0,0,0,0,0,0,0,0,0,0,0,0,0,0,0,0,0,0,0,0,0,0,0,0,0,0,0,0,0,0,0,0,0,0,0,0,0,0,0,0,0,0,0,0,0,0,0,0,0,0,0],"id":10,"left_children":[1,3,5,7,9,11,13,15,17,19,21,23,25,27,29,31,33,35,37,39,41,43,45,47,49,51,53,55,57,59,-1,61,63,65,67,69,71,73,75,77,79,81,83,85,87,89,91,93,95,97,99,101,103,105,107,109,111,113,115,-1,117,-1,-1,-1,-1,-1,-1,-1,-1,-1,-1,-1,-1,-1,-1,-1,-1,-1,-1,-1,-1,-1,-1,-1,-1,-1,-1,-1,-1,-1,-1,-1,-1,-1,-1,-1,-1,-1,-1,-1,-1,-1,-1,-1,-1,-1,-1,-1,-1,-1,-1,-1,-1,-1,-1,-1,-1,-1,-1],"loss_changes":[4.9879164E4,8.583549E3,8.0575586E3,1.4260352E3,1.1568616E3,1.3486533E3,1.9169336E3,2.7975E2,5.8727246E2,2.3691763E2,3.0946692E2,2.0295508E2,1.861836E2,2.0013281E2,2.5288281E2,2.4668896E2,1.6310889E2,5.008369E2,1.6003723E2,2.3153802E2,2.2363138E2,1.0795538E2,3.062211E2,1.8328296E2,1.9830078E2,1.1026221E2,1.9512451E2,1.1502783E2,8.1893555E1,2.485254E1,0E0,1.0074487E2,1.6235791E2,1.3093597E1,6.3387695E1,1.9986499E2,1.4413647E2,9.255286E1,1.1830841E2,9.812344E1,3.868512E1,2.2041977E2,1.7679697E2,2.8484924E1,5.576408E1,2.7429498E2,1.6315353E2,1.4335645E2,1.0120569E2,5.9880493E1,1.1276172E2,5.9183228E1,4.156372E1,9.96355E1,1.3527441E2,1.2532471E2,1.1432593E2,7.521118E1,1.532002E2,0E0,2.7464844E1,0E0,0E0,0E0,0E0,0E0,0E0,0E0,0E0,0E0,0E0,0E0,0E0,0E0,0E0,0E0,0E0,0E0,0E0,0E0,0E0,0E0,0E0,0E0,0E0,0E0,0E0,0E0,0E0,0E0,0E0,0E0,0E0,0E0,0E0,0E0,0E0,0E0,0E0,0E0,0E0,0E0,0E0,0E0,0E0,0E0,0E0,0E0,0E0,0E0,0E0,0E0,0E0,0E0,0E0,0E0,0E0,0E0,0E0],"parents":[2147483647,0,0,1,1,2,2,3,3,4,4,5,5,6,6,7,7,8,8,9,9,10,10,11,11,12,12,13,13,14,14,15,15,16,16,17,17,18,18,19,19,20,20,21,21,22,22,23,23,24,24,25,25,26,26,27,27,28,28,29,29,31,31,32,32,33,33,34,34,35,35,36,36,37,37,38,38,39,39,40,40,41,41,42,42,43,43,44,44,45,45,46,46,47,47,48,48,49,49,50,50,51,51,52,52,53,53,54,54,55,55,56,56,57,57,58,58,60,60],"right_children":[2,4,6,8,10,12,14,16,18,20,22,24,26,28,30,32,34,36,38,40,42,44,46,48,50,52,54,56,58,60,-1,62,64,66,68,70,72,74,76,78,80,82,84,86,88,90,92,94,96,98,100,102,104,106,108,110,112,114,116,-1,118,-1,-1,-1,-1,-1,-1,-1,-1,-1,-1,-1,-1,-1,-1,-1,-1,-1,-1,-1,-1,-1,-1,-1,-1,-1,-1,-1,-1,-1,-1,-1,-1,-1,-1,-1,-1,-1,-1,-1,-1,-1,-1,-1,-1,-1,-1,-1,-1,-1,-1,-1,-1,-1,-1,-1,-1,-1,-1],"split_conditions":[9.4E0,3.8E0,1.68E1,2E0,6.2E0,1.21E1,2.4E1,1E0,1.01E1,-5E-1,-4.2E0,1.908E-1,1.38E1,1.88E1,3.09E1,4.5E0,-5E0,1E0,8.91E-1,1.5E0,4.6E0,9.925E-1,1.54E1,-2.588E-1,-1.3E0,-3.1E0,-1.75E-2,1E-1,-1.9E0,3E0,-7.300306E-1,2.9E0,-4E-1,-9.563E-1,2E0,1.5E0,3E0,3.3E0,1E0,6.7E0,-1.6E0,-5E-1,2.6E0,7.6E0,7.5E0,1.7E0,1.5E1,3E0,2.37E1,1.32E1,3E0,-5E-1,2.3E1,-2.588E-1,2.21E1,1E-1,3E-1,-9.986E-1,1.6E0,-2.917765E-1,2.63E1,8.884456E-2,1.2485951E-1,2.0641766E-1,1.2841293E-1,5.018278E-2,1.0166862E-1,1.4792626E-1,1.8319182E-1,3.8031336E-2,6.917042E-2,1.17814556E-1,7.454137E-2,1.6487817E-1,7.9149716E-2,2.0046103E-1,4.6278873E-1,2.5995081E-2,6.4384624E-2,3.3282435E-1,1.4156209E-1,7.927476E-2,1.5429901E-2,-1.6158765E-2,3.3308115E-2,-8.3707E-2,-1.2939937E-1,-5.989632E-2,6.775592E-2,-3.996517E-2,1.6867986E-1,4.462513E-2,-2.766411E-2,-1.935957E-2,-1.03150584E-1,-1.1587669E-1,-4.1453075E-2,-1.0204277E-1,-1.8161222E-1,-1.1509436E-1,-3.654819E-2,-1.6877963E-1,-2.8084138E-1,-1.4466524E-1,-2.7219832E-1,-1.3265245E-1,-2.002187E-1,-2.8101665E-1,-1.8943167E-1,-3.3102688E-1,-2.3686369E-1,-4.954248E-3,-2.201265E-1,-3.8301834E-1,-2.475123E-1,-3.7643787E-1,-2.7462995E-1,-4.2361328E-1,-5.359042E-1],"split_indices":[0,0,0,0,0,0,0,8,7,12,14,9,0,0,0,14,14,8,9,1,0,10,7,12,14,14,9,14,1,3,0,7,1,10,4,14,0,0,1,7,14,11,14,0,0,1,3,4,7,7,4,11,3,12,7,1,14,10,1,0,0,0,0,0,0,0,0,0,0,0,0,0,0,0,0,0,0,0,0,0,0,0,0,0,0,0,0,0,0,0,0,0,0,0,0,0,0,0,0,0,0,0,0,0,0,0,0,0,0,0,0,0,0,0,0,0,0,0,0],"split_type":[0,0,0,0,0,0,0,0,0,0,0,0,0,0,0,0,0,0,0,0,0,0,0,0,0,0,0,0,0,0,0,0,0,0,0,0,0,0,0,0,0,0,0,0,0,0,0,0,0,0,0,0,0,0,0,0,0,0,0,0,0,0,0,0,0,0,0,0,0,0,0,0,0,0,0,0,0,0,0,0,0,0,0,0,0,0,0,0,0,0,0,0,0,0,0,0,0,0,0,0,0,0,0,0,0,0,0,0,0,0,0,0,0,0,0,0,0,0,0],"sum_hessian":[1.2034E4,9.396E3,2.638E3,5.395E3,4.001E3,1.958E3,6.8E2,2.278E3,3.117E3,2.339E3,1.662E3,1.066E3,8.92E2,5.58E2,1.22E2,1.467E3,8.11E2,2.932E3,1.85E2,7.1E2,1.629E3,1.94E2,1.468E3,5.85E2,4.81E2,4.18E2,4.74E2,2.42E2,3.16E2,1.06E2,1.6E1,1.015E3,4.52E2,1.2E2,6.91E2,2.098E3,8.34E2,1.57E2,2.8E1,6.95E2,1.5E1,6.61E2,9.68E2,1.6E2,3.4E1,1.137E3,3.31E2,2.33E2,3.52E2,1.81E2,3E2,6.2E1,3.56E2,2.76E2,1.98E2,1.77E2,6.5E1,9.1E1,2.25E2,7E0,9.9E1,7.37E2,2.78E2,8.6E1,3.66E2,1.8E1,1.02E2,4.75E2,2.16E2,9.37E2,1.161E3,5.11E2,3.23E2,1.08E2,4.9E1,2.2E1,6E0,4.14E2,2.81E2,6E0,9E0,1.89E2,4.72E2,7.29E2,2.39E2,7.4E1,8.6E1,2.1E1,1.3E1,1.122E3,1.5E1,2.07E2,1.24E2,1.58E2,7.5E1,2.96E2,5.6E1,3.4E1,1.47E2,2.42E2,5.8E1,3.4E1,2.8E1,3.49E2,7E0,9.2E1,1.84E2,1.2E2,7.8E1,8.5E1,9.2E1,7E0,5.8E1,1.7E1,7.4E1,1.55E2,7E1,4.3E1,5.6E1],"tree_param":{"num_deleted":"0","num_feature":"15","num_nodes":"119","size_leaf_vector":"1"}},{"base_weights":[2.8155968E-2,1.0585865E0,-3.4773908E0,1.7035632E0,-1.0464125E-1,-2.3110123E0,-5.6925607E0,2.252679E0,1.2208639E0,3.188007E-1,-6.1153626E-1,-1.7232306E0,-3.1399965E0,-5.152368E0,-9.735543E0,1.7956216E0,2.640771E0,7.609156E-1,1.608755E0,-9.78098E-2,7.328761E-1,-7.9236424E-1,3.1289473E-1,-8.2317454E-1,-1.9781634E0,-3.431629E0,-2.5542798E0,-4.520423E0,-6.10352E0,-8.199226E0,-5.773526E-1,2.609009E0,1.6637164E0,2.9465055E0,2.3342457E0,7.304627E-1,2.9135237E0,1.4401995E0,2.8406448E0,-4.3978086E-1,4.0027255E-1,4.393453E-1,1.4948478E0,-1.4125026E0,-5.673547E-1,9.7024465E-1,-5.7591593E-1,1.3507538E0,-1.1873058E0,-2.413533E0,-1.135664E0,-2.151535E0,-3.677833E0,-2.150946E0,-3.984018E0,-4.628166E0,-6.85596E-1,-4.7647667E0,-6.4582696E0,-5.222586E0,-8.795248E0,1.677872E-1,1.1048698E-1,7.936537E-2,1.2185492E-1,1.4157374E-1,1.8300278E-1,1.0429575E-1,1.4299811E-1,4.540048E-2,2.0780684E-2,1.791692E-1,3.683096E-2,4.9052037E-2,8.164858E-2,1.1721487E-1,2.527549E-1,-6.2246555E-3,-3.6578927E-2,9.20568E-2,1.42528685E-2,7.9512626E-2,9.601529E-3,9.310427E-3,9.647732E-2,-3.9865743E-2,-8.750597E-2,6.8984486E-2,-3.1695016E-2,3.8025245E-2,1.9987124E-1,-7.6269954E-2,-0E0,1.1258178E-1,9.514223E-3,-7.9350155E-3,-7.585969E-2,-4.1263733E-2,-1.2626831E-1,-2.3014938E-2,-9.5235296E-2,-3.8484436E-2,-1.7234361E-1,-2.1233611E-1,-1.5951996E-1,-1.7792799E-1,-9.438772E-2,-2.3134673E-1,-1.08082905E-1,-9.307192E-2,-2.3861936E-1,7.582911E-2,-1.1666675E-1,-3.0748743E-1,-1.8549491E-1,-3.5407734E-1,-2.4499483E-1,-3.3085772E-1,-1.7556684E-1,-4.678578E-1,-3.0904755E-1],"categories":[],"categories_nodes":[],"categories_segments":[],"categories_sizes":[],"default_left":[0,0,0,0,0,0,0,0,0,0,0,0,0,0,0,0,0,0,0,0,0,0,0,0,0,0,0,0,0,0,0,0,0,0,0,0,0,0,0,0,0,0,0,0,0,0,0,0,0,0,0,0,0,0,0,0,0,0,0,0,0,0,0,0,0,0,0,0,0,0,0,0,0,0,0,0,0,0,0,0,0,0,0,0,0,0,0,0,0,0,0,0,0,0,0,0,0,0,0,0,0,0,0,0,0,0,0,0,0,0,0,0,0,0,0,0,0,0,0,0,0],"id":11,"left_children":[1,3,5,7,9,11,13,15,17,19,21,23,25,27,29,31,33,35,37,39,41,43,45,47,49,51,53,55,57,59,-1,61,63,65,67,69,71,73,75,77,79,81,83,85,87,89,91,93,95,97,99,101,103,105,107,109,111,113,115,117,119,-1,-1,-1,-1,-1,-1,-1,-1,-1,-1,-1,-1,-1,-1,-1,-1,-1,-1,-1,-1,-1,-1,-1,-1,-1,-1,-1,-1,-1,-1,-1,-1,-1,-1,-1,-1,-1,-1,-1,-1,-1,-1,-1,-1,-1,-1,-1,-1,-1,-1,-1,-1,-1,-1,-1,-1,-1,-1,-1,-1],"loss_changes":[4.3505434E4,6.98371E3,7.055117E3,1.5840703E3,7.130457E2,8.6825E2,2.0078516E3,4.9147852E2,5.674878E2,3.1237494E2,2.5304626E2,2.394768E2,1.1755127E2,4.7264453E2,2.0948438E2,1.335293E2,1.3429199E2,9.328058E1,3.5449365E2,1.5398775E2,2.022351E2,1.7551495E2,1.4549461E2,1.868207E2,2.97312E2,1.4687988E2,1.355592E2,2.049502E2,1.2483008E2,6.443506E1,0E0,4.5098633E1,6.1440674E1,5.0793457E1,9.275879E1,8.0098694E1,2.609285E1,1.329414E2,2.1493091E2,4.913543E1,6.0353992E1,1.8652246E2,1.4278284E2,6.813629E1,1.21297516E2,8.7277695E1,5.79157E1,3.4872517E1,6.779587E1,9.3318115E1,1.4483371E2,1.4370181E2,9.995361E1,6.609119E1,5.2587036E1,1.863711E2,5.804959E1,8.28501E1,2.1469824E2,6.776001E0,1.5529053E1,0E0,0E0,0E0,0E0,0E0,0E0,0E0,0E0,0E0,0E0,0E0,0E0,0E0,0E0,0E0,0E0,0E0,0E0,0E0,0E0,0E0,0E0,0E0,0E0,0E0,0E0,0E0,0E0,0E0,0E0,0E0,0E0,0E0,0E0,0E0,0E0,0E0,0E0,0E0,0E0,0E0,0E0,0E0,0E0,0E0,0E0,0E0,0E0,0E0,0E0,0E0,0E0,0E0,0E0,0E0,0E0,0E0,0E0,0E0,0E0],"parents":[2147483647,0,0,1,1,2,2,3,3,4,4,5,5,6,6,7,7,8,8,9,9,10,10,11,11,12,12,13,13,14,14,15,15,16,16,17,17,18,18,19,19,20,20,21,21,22,22,23,23,24,24,25,25,26,26,27,27,28,28,29,29,31,31,32,32,33,33,34,34,35,35,36,36,37,37,38,38,39,39,40,40,41,41,42,42,43,43,44,44,45,45,46,46,47,47,48,48,49,49,50,50,51,51,52,52,53,53,54,54,55,55,56,56,57,57,58,58,59,59,60,60],"right_children":[2,4,6,8,10,12,14,16,18,20,22,24,26,28,30,32,34,36,38,40,42,44,46,48,50,52,54,56,58,60,-1,62,64,66,68,70,72,74,76,78,80,82,84,86,88,90,92,94,96,98,100,102,104,106,108,110,112,114,116,118,120,-1,-1,-1,-1,-1,-1,-1,-1,-1,-1,-1,-1,-1,-1,-1,-1,-1,-1,-1,-1,-1,-1,-1,-1,-1,-1,-1,-1,-1,-1,-1,-1,-1,-1,-1,-1,-1,-1,-1,-1,-1,-1,-1,-1,-1,-1,-1,-1,-1,-1,-1,-1,-1,-1,-1,-1,-1,-1,-1,-1],"split_conditions":[9.1E0,4.2E0,1.53E1,2.3E0,6.2E0,1.16E1,2.45E1,-2.7E0,-3.4E0,6.7E0,1.61E1,-7.071E-1,8.829E-1,1.88E1,2.8E1,8E-1,1.5E0,1.23E1,1.1E0,2.2E0,9E-1,3.43E1,1.1E1,3.3E1,1.9E1,-2.2E0,1.9E1,3.58E2,-2E0,-2.9E0,-5.773526E-1,5E-1,4.9E0,6.9E0,4.7E0,3.3E0,-4.3E0,-5.446E-1,4.64E1,4.8E0,-8E-1,4.7E0,-2.2E0,6.8E0,7E0,5.52E1,1.45E2,1.61E1,9.6E0,1.1E1,1.08E1,4.75E1,4.54E1,-1.1E1,1.6E0,-5E-1,1.63E1,4.14E1,1.6E0,1E0,2.7E0,1.677872E-1,1.1048698E-1,7.936537E-2,1.2185492E-1,1.4157374E-1,1.8300278E-1,1.0429575E-1,1.4299811E-1,4.540048E-2,2.0780684E-2,1.791692E-1,3.683096E-2,4.9052037E-2,8.164858E-2,1.1721487E-1,2.527549E-1,-6.2246555E-3,-3.6578927E-2,9.20568E-2,1.42528685E-2,7.9512626E-2,9.601529E-3,9.310427E-3,9.647732E-2,-3.9865743E-2,-8.750597E-2,6.8984486E-2,-3.1695016E-2,3.8025245E-2,1.9987124E-1,-7.6269954E-2,-0E0,1.1258178E-1,9.514223E-3,-7.9350155E-3,-7.585969E-2,-4.1263733E-2,-1.2626831E-1,-2.3014938E-2,-9.5235296E-2,-3.8484436E-2,-1.7234361E-1,-2.1233611E-1,-1.5951996E-1,-1.7792799E-1,-9.438772E-2,-2.3134673E-1,-1.08082905E-1,-9.307192E-2,-2.3861936E-1,7.582911E-2,-1.1666675E-1,-3.0748743E-1,-1.8549491E-1,-3.5407734E-1,-2.4499483E-1,-3.3085772E-1,-1.7556684E-1,-4.678578E-1,-3.0904755E-1],"split_indices":[0,0,0,0,0,0,0,2,2,7,7,12,10,0,0,0,0,7,1,2,1,6,3,6,7,1,3,5,1,1,0,12,7,7,7,0,2,9,13,0,1,0,2,0,5,6,5,7,0,5,0,13,6,2,1,9,0,13,1,2,1,0,0,0,0,0,0,0,0,0,0,0,0,0,0,0,0,0,0,0,0,0,0,0,0,0,0,0,0,0,0,0,0,0,0,0,0,0,0,0,0,0,0,0,0,0,0,0,0,0,0,0,0,0,0,0,0,0,0,0,0],"split_type":[0,0,0,0,0,0,0,0,0,0,0,0,0,0,0,0,0,0,0,0,0,0,0,0,0,0,0,0,0,0,0,0,0,0,0,0,0,0,0,0,0,0,0,0,0,0,0,0,0,0,0,0,0,0,0,0,0,0,0,0,0,0,0,0,0,0,0,0,0,0,0,0,0,0,0,0,0,0,0,0,0,0,0,0,0,0,0,0,0,0,0,0,0,0,0,0,0,0,0,0,0,0,0,0,0,0,0,0,0,0,0,0,0,0,0,0,0,0,0,0,0],"sum_hessian":[1.2042E4,9.307E3,2.735E3,5.987E3,3.32E3,1.793E3,9.42E2,2.799E3,3.188E3,1.809E3,1.511E3,1.051E3,7.42E2,8.33E2,1.09E2,1.288E3,1.511E3,1.46E3,1.728E3,9.02E2,9.07E2,1.264E3,2.47E2,2.33E2,8.18E2,4.92E2,2.5E2,5.04E2,3.29E2,6.2E1,4.7E1,1.77E2,1.111E3,7.52E2,7.59E2,1.441E3,1.9E1,1.522E3,2.06E2,5.35E2,3.67E2,6.56E2,2.51E2,3.35E2,9.29E2,1.42E2,1.05E2,3.3E1,2E2,5.38E2,2.8E2,8.1E1,4.11E2,1.97E2,5.3E1,4.9E2,1.4E1,7.2E1,2.57E2,1.2E1,5E1,5.9E1,1.18E2,1.014E3,9.7E1,6.52E2,1E2,5.19E2,2.4E2,9.2E2,5.21E2,1.4E1,5E0,4.52E2,1.07E3,1.7E2,3.6E1,2.58E2,2.77E2,2.6E1,3.41E2,1.15E2,5.41E2,6.3E1,1.88E2,1.2E2,2.15E2,3E1,8.99E2,1.34E2,8E0,3.9E1,6.6E1,1.8E1,1.5E1,4.9E1,1.51E2,3.6E1,5.02E2,1.5E2,1.3E2,4E1,4.1E1,1.86E2,2.25E2,2.9E1,1.68E2,3.8E1,1.5E1,2.5E1,4.65E2,6E0,8E0,2.9E1,4.3E1,1.81E2,7.6E1,5E0,7E0,3.9E1,1.1E1],"tree_param":{"num_deleted":"0","num_feature":"15","num_nodes":"121","size_leaf_vector":"1"}},{"base_weights":[9.774133E-3,1.021317E0,-3.319109E0,1.7897463E0,9.7806856E-2,-2.3842394E0,-5.999765E0,1.2913013E0,2.1826625E0,6.102519E-1,-3.7539804E-1,-1.7365826E0,-3.335587E0,-5.297473E0,-9.484029E0,1.7983979E0,8.9873546E-1,2.7238097E0,1.8594913E0,3.9936692E-1,1.2232157E0,-1.8041927E-1,-9.735603E-1,-2.0053082E0,-1.1053755E0,-3.3937829E0,9.8835844E-1,-4.5406227E0,-5.9620595E0,-7.897197E0,-5.226442E-1,1.6084251E0,2.232626E0,1.2000356E0,7.245161E-1,2.444216E0,3.0001674E0,1.7194271E0,3.447223E0,1.898891E-1,8.809441E-1,4.9001342E-1,1.3928914E0,-6.8224275E-1,4.2780735E-2,-1.827038E0,-5.4026484E-1,-2.1263719E0,-3.55288E-1,3.7617397E-1,-1.3669522E0,-2.7570274E0,-3.7522726E0,1.5023553E-1,-4.3342598E-2,-4.927489E0,-3.5689807E0,-4.824E0,-6.3132277E0,-2.117217E-1,-8.2078495E0,9.513297E-2,7.123316E-2,9.651328E-2,1.5149032E-1,4.688742E-2,8.056064E-2,6.181339E-2,3.0674955E-2,7.996207E-2,1.2792154E-1,2.3972836E-1,1.4071344E-1,7.777668E-2,1.17883675E-1,1.4681529E-1,4.3858567E-1,3.7003133E-2,-6.085932E-4,2.9417498E-2,5.7964105E-2,1.36024775E-2,1.0999509E-1,-9.184795E-3,7.466968E-2,-4.6584215E-2,1.3250771E-2,-5.4558762E-3,4.4959273E-2,-1.0381897E-1,-5.2398164E-2,-1.23918556E-1,-1.9996157E-2,-5.7202816E-2,-1.1722994E-1,-8.610589E-2,4.318297E-3,9.904498E-2,-1.7642846E-2,-8.296242E-2,-1.698898E-2,-1.4618395E-1,-4.262172E-2,-1.5554011E-1,-2.2234872E-1,-3.122177E-1,-2.262849E-1,-6.4446695E-2,-1.9599743E-1,-2.6154134E-1,-1.4317577E-1,-3.423143E-1,-2.562723E-1,-4.32307E-1,-2.7414468E-1],"categories":[],"categories_nodes":[],"categories_segments":[],"categories_sizes":[],"default_left":[0,0,0,0,0,0,0,0,0,0,0,0,0,0,0,0,0,0,0,0,0,0,0,0,0,0,0,0,0,0,0,0,0,0,0,0,0,0,0,0,0,0,0,0,0,0,0,0,0,0,0,0,0,0,0,0,0,0,0,0,0,0,0,0,0,0,0,0,0,0,0,0,0,0,0,0,0,0,0,0,0,0,0,0,0,0,0,0,0,0,0,0,0,0,0,0,0,0,0,0,0,0,0,0,0,0,0,0,0,0,0,0,0,0,0],"id":12,"left_children":[1,3,5,7,9,11,13,15,17,19,21,23,25,27,29,31,33,35,37,39,41,43,45,47,49,51,53,55,57,59,-1,61,63,65,67,69,71,73,75,77,79,81,83,85,87,89,91,93,95,97,99,101,103,-1,-1,105,107,109,111,-1,113,-1,-1,-1,-1,-1,-1,-1,-1,-1,-1,-1,-1,-1,-1,-1,-1,-1,-1,-1,-1,-1,-1,-1,-1,-1,-1,-1,-1,-1,-1,-1,-1,-1,-1,-1,-1,-1,-1,-1,-1,-1,-1,-1,-1,-1,-1,-1,-1,-1,-1,-1,-1,-1,-1],"loss_changes":[4.0774527E4,6.590177E3,7.0569707E3,9.89583E2,1.0233242E3,1.2839111E3,1.7321191E3,4.4343066E2,4.899209E2,2.612398E2,2.5559286E2,2.0915991E2,2.1673145E2,2.7820117E2,1.0164258E2,7.6454346E1,6.52359E1,7.3793945E1,3.887329E2,1.5195316E2,6.3571777E1,1.8557674E2,1.9810272E2,1.7358472E2,1.459403E2,1.7983789E2,4.770752E1,9.0197754E1,9.671973E1,2.0892578E1,0E0,3.3831665E1,6.452014E1,4.7951416E1,4.467749E1,4.673877E1,1.6154102E2,1.6696973E2,3.6208643E2,1.17142334E2,3.6361267E1,3.6051018E1,6.695459E1,1.2081923E2,1.493862E2,3.2671814E1,9.636799E1,1.7146436E2,3.7135918E1,6.754578E1,9.501251E1,9.393799E1,2.2248584E2,0E0,0E0,7.86001E1,6.3245728E1,4.801831E1,1.1693555E2,0E0,4.9257812E0,0E0,0E0,0E0,0E0,0E0,0E0,0E0,0E0,0E0,0E0,0E0,0E0,0E0,0E0,0E0,0E0,0E0,0E0,0E0,0E0,0E0,0E0,0E0,0E0,0E0,0E0,0E0,0E0,0E0,0E0,0E0,0E0,0E0,0E0,0E0,0E0,0E0,0E0,0E0,0E0,0E0,0E0,0E0,0E0,0E0,0E0,0E0,0E0,0E0,0E0,0E0,0E0,0E0,0E0],"parents":[2147483647,0,0,1,1,2,2,3,3,4,4,5,5,6,6,7,7,8,8,9,9,10,10,11,11,12,12,13,13,14,14,15,15,16,16,17,17,18,18,19,19,20,20,21,21,22,22,23,23,24,24,25,25,26,26,27,27,28,28,29,29,31,31,32,32,33,33,34,34,35,35,36,36,37,37,38,38,39,39,40,40,41,41,42,42,43,43,44,44,45,45,46,46,47,47,48,48,49,49,50,50,51,51,52,52,55,55,56,56,57,57,58,58,60,60],"right_children":[2,4,6,8,10,12,14,16,18,20,22,24,26,28,30,32,34,36,38,40,42,44,46,48,50,52,54,56,58,60,-1,62,64,66,68,70,72,74,76,78,80,82,84,86,88,90,92,94,96,98,100,102,104,-1,-1,106,108,110,112,-1,114,-1,-1,-1,-1,-1,-1,-1,-1,-1,-1,-1,-1,-1,-1,-1,-1,-1,-1,-1,-1,-1,-1,-1,-1,-1,-1,-1,-1,-1,-1,-1,-1,-1,-1,-1,-1,-1,-1,-1,-1,-1,-1,-1,-1,-1,-1,-1,-1,-1,-1,-1,-1,-1,-1],"split_conditions":[9.1E0,3.5E0,1.66E1,3.35E1,5.3E0,1.21E1,2.4E1,2E0,1.7E0,8.3E0,7.7E0,8E-1,2.6E0,1.88E1,2.66E1,4.3E0,2.6E0,2.7E0,1.01E1,3.9E0,7E0,3.54E1,-4E-1,2.62E1,-7.071E-1,-8.72E-2,-7.7E0,1E-1,-1.9E0,3.36E1,-5.226442E-1,1.2E0,2.2E0,3E0,-3.746E-1,-1.7E0,-5E-1,9E-1,2.1E1,-2.588E-1,2E0,4.43E1,-4E0,1.52E1,1.39E1,6E-1,-9.816E-1,-8.66E-1,7E-1,9E-1,4.75E1,5.09E1,1.38E1,1.5023553E-1,-4.3342598E-2,1.3E1,3.11E1,5.56E1,1.6E0,-2.117217E-1,2.7E0,9.513297E-2,7.123316E-2,9.651328E-2,1.5149032E-1,4.688742E-2,8.056064E-2,6.181339E-2,3.0674955E-2,7.996207E-2,1.2792154E-1,2.3972836E-1,1.4071344E-1,7.777668E-2,1.17883675E-1,1.4681529E-1,4.3858567E-1,3.7003133E-2,-6.085932E-4,2.9417498E-2,5.7964105E-2,1.36024775E-2,1.0999509E-1,-9.184795E-3,7.466968E-2,-4.6584215E-2,1.3250771E-2,-5.4558762E-3,4.4959273E-2,-1.0381897E-1,-5.2398164E-2,-1.23918556E-1,-1.9996157E-2,-5.7202816E-2,-1.1722994E-1,-8.610589E-2,4.318297E-3,9.904498E-2,-1.7642846E-2,-8.296242E-2,-1.698898E-2,-1.4618395E-1,-4.262172E-2,-1.5554011E-1,-2.2234872E-1,-3.122177E-1,-2.262849E-1,-6.4446695E-2,-1.9599743E-1,-2.6154134E-1,-1.4317577E-1,-3.423143E-1,-2.562723E-1,-4.32307E-1,-2.7414468E-1],"split_indices":[0,0,0,6,0,0,0,0,0,7,0,1,1,0,0,14,0,7,7,14,3,6,14,7,12,9,14,14,1,6,0,0,7,14,10,14,1,1,3,12,4,6,14,7,7,1,9,12,14,14,6,6,0,0,0,3,6,6,1,0,1,0,0,0,0,0,0,0,0,0,0,0,0,0,0,0,0,0,0,0,0,0,0,0,0,0,0,0,0,0,0,0,0,0,0,0,0,0,0,0,0,0,0,0,0,0,0,0,0,0,0,0,0,0,0],"split_type":[0,0,0,0,0,0,0,0,0,0,0,0,0,0,0,0,0,0,0,0,0,0,0,0,0,0,0,0,0,0,0,0,0,0,0,0,0,0,0,0,0,0,0,0,0,0,0,0,0,0,0,0,0,0,0,0,0,0,0,0,0,0,0,0,0,0,0,0,0,0,0,0,0,0,0,0,0,0,0,0,0,0,0,0,0,0,0,0,0,0,0,0,0,0,0,0,0,0,0,0,0,0,0,0,0,0,0,0,0,0,0,0,0,0,0],"sum_hessian":[1.2107E4,9.286E3,2.821E3,5.068E3,4.218E3,2.093E3,7.28E2,2.236E3,2.832E3,2.025E3,2.193E3,1.247E3,8.46E2,6.08E2,1.2E2,9.74E2,1.262E3,1.056E3,1.776E3,1.508E3,5.17E2,1.655E3,5.38E2,8.73E2,3.74E2,8.35E2,1.1E1,2.88E2,3.2E2,4.9E1,7.1E1,6.81E2,2.93E2,4.6E2,8.02E2,5.3E2,5.26E2,1.634E3,1.42E2,1.052E3,4.56E2,9.8E1,4.19E2,5.09E2,1.146E3,1.8E2,3.58E2,8.13E2,6E1,5.6E1,3.18E2,3.04E2,5.31E2,5E0,6E0,2.03E2,8.5E1,7.9E1,2.41E2,5E0,4.4E1,2.58E2,4.23E2,2.15E2,7.8E1,2.83E2,1.77E2,1.41E2,6.61E2,6.5E1,4.65E2,4.7E1,4.79E2,1.303E3,3.31E2,1.31E2,1.1E1,2.82E2,7.7E2,2.24E2,2.32E2,8.8E1,1E1,2.5E1,3.94E2,4.03E2,1.06E2,9.74E2,1.72E2,1.35E2,4.5E1,2.3E1,3.35E2,1.49E2,6.64E2,1.4E1,4.6E1,1.7E1,3.9E1,2.47E2,7.1E1,2.79E2,2.5E1,2.79E2,2.52E2,4.4E1,1.59E2,1.2E1,7.3E1,6.4E1,1.5E1,1.63E2,7.8E1,3.6E1,8E0],"tree_param":{"num_deleted":"0","num_feature":"15","num_nodes":"115","size_leaf_vector":"1"}},{"base_weights":[1.4512087E-2,9.172738E-1,-3.4470584E0,1.6458334E0,-4.538674E-2,-2.5890357E0,-6.282898E0,2.2567048E0,1.2967889E0,3.1335786E-1,-7.8297836E-1,-1.8124044E0,-3.3407338E0,-5.690687E0,-9.8305435E0,1.874286E0,2.6484063E0,9.1606724E-1,1.7630047E0,-1.8315136E-1,5.616312E-1,-5.435033E-1,-1.2301906E0,-1.4592643E0,-2.420845E0,-3.7040856E0,-2.764428E0,-5.9408126E0,-4.3925323E0,-8.838366E0,-6.0650986E-1,1.8135778E0,4.102933E0,3.6181145E0,2.5967774E0,1.2286681E0,7.065163E-1,1.5476701E0,2.9603271E0,6.9339156E-2,-5.7939506E-1,4.6373078E-1,1.851706E0,-5.7906353E-1,1.4894104E-1,-1.4953779E0,8.998375E-2,-9.189985E-1,-1.8499752E0,-1.6643848E0,-2.6292698E0,-4.072108E0,-2.978208E0,-2.3817534E0,-3.6568205E0,-5.7076135E0,-7.5410085E0,-2.68602E0,-4.9089503E0,-2.9796347E-1,-4.57931E-1,1.3247411E-1,8.5225984E-2,1.19289696E-1,3.8278857E-1,1.4082138E-1,2.856666E-1,1.4719763E-1,1.2300885E-1,5.733042E-2,9.981084E-2,4.7827218E-2,2.3139065E-2,4.9610477E-2,8.416526E-2,1.389733E-1,4.736858E-1,1.485277E-2,-2.0092208E-2,-3.3309937E-2,1.6716473E-1,4.8534628E-2,1.0021692E-2,1.9325726E-1,6.2019188E-2,-3.8633995E-2,-5.8636013E-3,-1.0083317E-1,-5.4098226E-2,-1.9205535E-2,1.0883335E-1,1.0371283E-2,-6.981539E-2,-9.693158E-2,2.0455487E-2,-1.1100588E-1,-6.7923546E-2,-2.2075844E-1,-1.2534949E-1,-1.5966426E-1,-2.3357867E-1,-1.6879135E-1,-4.7380332E-2,-6.8154804E-2,-1.3784848E-1,-3.1966838E-1,-1.6180679E-1,-3.1857464E-1,-2.657505E-1,-4.1814014E-1,-2.632886E-1,-6.27208E-2,-2.5110126E-1,-3.0345854E-1,-2.1409936E-1],"categories":[],"categories_nodes":[],"categories_segments":[],"categories_sizes":[],"default_left":[0,0,0,0,0,0,0,0,0,0,0,0,0,0,0,0,0,0,0,0,0,0,0,0,0,0,0,0,0,0,0,0,0,0,0,0,0,0,0,0,0,0,0,0,0,0,0,0,0,0,0,0,0,0,0,0,0,0,0,0,0,0,0,0,0,0,0,0,0,0,0,0,0,0,0,0,0,0,0,0,0,0,0,0,0,0,0,0,0,0,0,0,0,0,0,0,0,0,0,0,0,0,0,0,0,0,0,0,0,0,0,0,0,0,0],"id":13,"left_children":[1,3,5,7,9,11,13,15,17,19,21,23,25,27,29,31,33,35,37,39,41,43,45,47,49,51,53,55,57,59,-1,61,63,65,67,69,71,73,75,77,79,81,83,85,-1,87,89,91,93,95,97,99,101,103,105,107,109,111,113,-1,-1,-1,-1,-1,-1,-1,-1,-1,-1,-1,-1,-1,-1,-1,-1,-1,-1,-1,-1,-1,-1,-1,-1,-1,-1,-1,-1,-1,-1,-1,-1,-1,-1,-1,-1,-1,-1,-1,-1,-1,-1,-1,-1,-1,-1,-1,-1,-1,-1,-1,-1,-1,-1,-1,-1],"loss_changes":[3.7965086E4,6.758496E3,6.0975137E3,1.1662373E3,1.0989406E3,1.1207324E3,1.1673633E3,2.9312305E2,6.1811914E2,3.4455716E2,1.4469775E2,2.0063062E2,1.9432715E2,1.3587012E2,7.7788574E1,1.2888818E2,3.914746E1,1.2503711E2,3.9949512E2,9.33357E1,2.3420459E2,1.12585724E2,1.6586926E2,1.2573108E2,5.006201E1,1.4691699E2,1.2147949E2,1.1161621E2,6.0963135E1,1.5478516E-1,0E0,8.502588E1,1.393494E2,6.2002075E1,3.6605957E1,4.595813E1,6.980182E1,9.841504E1,2.5281152E2,6.1267666E1,1.2556255E2,2.3101175E2,1.5593787E2,7.841214E1,0E0,8.2417725E1,8.0158134E1,1.3804758E2,7.10448E1,9.886658E0,4.74198E1,1.9186426E2,1.6188672E2,9.941052E1,1.0843555E2,6.1143555E1,4.8089355E1,6.664581E1,1.9531494E1,0E0,0E0,0E0,0E0,0E0,0E0,0E0,0E0,0E0,0E0,0E0,0E0,0E0,0E0,0E0,0E0,0E0,0E0,0E0,0E0,0E0,0E0,0E0,0E0,0E0,0E0,0E0,0E0,0E0,0E0,0E0,0E0,0E0,0E0,0E0,0E0,0E0,0E0,0E0,0E0,0E0,0E0,0E0,0E0,0E0,0E0,0E0,0E0,0E0,0E0,0E0,0E0,0E0,0E0,0E0,0E0],"parents":[2147483647,0,0,1,1,2,2,3,3,4,4,5,5,6,6,7,7,8,8,9,9,10,10,11,11,12,12,13,13,14,14,15,15,16,16,17,17,18,18,19,19,20,20,21,21,22,22,23,23,24,24,25,25,26,26,27,27,28,28,29,29,31,31,32,32,33,33,34,34,35,35,36,36,37,37,38,38,39,39,40,40,41,41,42,42,43,43,45,45,46,46,47,47,48,48,49,49,50,50,51,51,52,52,53,53,54,54,55,55,56,56,57,57,58,58],"right_children":[2,4,6,8,10,12,14,16,18,20,22,24,26,28,30,32,34,36,38,40,42,44,46,48,50,52,54,56,58,60,-1,62,64,66,68,70,72,74,76,78,80,82,84,86,-1,88,90,92,94,96,98,100,102,104,106,108,110,112,114,-1,-1,-1,-1,-1,-1,-1,-1,-1,-1,-1,-1,-1,-1,-1,-1,-1,-1,-1,-1,-1,-1,-1,-1,-1,-1,-1,-1,-1,-1,-1,-1,-1,-1,-1,-1,-1,-1,-1,-1,-1,-1,-1,-1,-1,-1,-1,-1,-1,-1,-1,-1,-1,-1,-1,-1],"split_conditions":[9.7E0,3.8E0,1.76E1,1.8E0,6.8E0,1.21E1,2.63E1,-1.6E0,-1.9E0,-2.5E0,1.7E1,3.907E-1,3.26E2,5.42E1,3.09E1,9.925E-1,-9E-1,2.6E0,1.1E0,5.2E0,1.3E0,2.5E0,3E0,-2.588E-1,1.01E1,4.98E1,1.63E1,2.34E1,5.58E1,3E0,-6.0650986E-1,-5E-1,3.36E1,-1E0,9E-1,1E0,5E-1,-7.193E-1,9.781E-1,3.1E1,3.57E2,4.7E0,1.4E1,6.018E-1,1.4894104E-1,3.83E1,9.945E-1,3.4E1,1.43E1,1.2E0,3.75E1,1.33E1,8.66E-1,-7.071E-1,-9.7E0,1.3E1,2.59E1,5.67E1,1.5E1,-2.9796347E-1,-4.57931E-1,1.3247411E-1,8.5225984E-2,1.19289696E-1,3.8278857E-1,1.4082138E-1,2.856666E-1,1.4719763E-1,1.2300885E-1,5.733042E-2,9.981084E-2,4.7827218E-2,2.3139065E-2,4.9610477E-2,8.416526E-2,1.389733E-1,4.736858E-1,1.485277E-2,-2.0092208E-2,-3.3309937E-2,1.6716473E-1,4.8534628E-2,1.0021692E-2,1.9325726E-1,6.2019188E-2,-3.8633995E-2,-5.8636013E-3,-1.0083317E-1,-5.4098226E-2,-1.9205535E-2,1.0883335E-1,1.0371283E-2,-6.981539E-2,-9.693158E-2,2.0455487E-2,-1.1100588E-1,-6.7923546E-2,-2.2075844E-1,-1.2534949E-1,-1.5966426E-1,-2.3357867E-1,-1.6879135E-1,-4.7380332E-2,-6.8154804E-2,-1.3784848E-1,-3.1966838E-1,-1.6180679E-1,-3.1857464E-1,-2.657505E-1,-4.1814014E-1,-2.632886E-1,-6.27208E-2,-2.5110126E-1,-3.0345854E-1,-2.1409936E-1],"split_indices":[0,0,0,0,0,0,0,2,2,2,3,9,5,6,0,9,1,0,1,0,1,1,4,12,0,6,0,0,13,3,0,12,6,1,0,8,12,9,9,13,5,0,5,10,0,6,10,6,2,2,6,0,12,12,2,3,0,6,3,0,0,0,0,0,0,0,0,0,0,0,0,0,0,0,0,0,0,0,0,0,0,0,0,0,0,0,0,0,0,0,0,0,0,0,0,0,0,0,0,0,0,0,0,0,0,0,0,0,0,0,0,0,0,0,0],"split_type":[0,0,0,0,0,0,0,0,0,0,0,0,0,0,0,0,0,0,0,0,0,0,0,0,0,0,0,0,0,0,0,0,0,0,0,0,0,0,0,0,0,0,0,0,0,0,0,0,0,0,0,0,0,0,0,0,0,0,0,0,0,0,0,0,0,0,0,0,0,0,0,0,0,0,0,0,0,0,0,0,0,0,0,0,0,0,0,0,0,0,0,0,0,0,0,0,0,0,0,0,0,0,0,0,0,0,0,0,0,0,0,0,0,0,0],"sum_hessian":[1.2147E4,9.635E3,2.512E3,5.484E3,4.151E3,1.93E3,5.82E2,1.992E3,3.492E3,2.793E3,1.358E3,9.51E2,9.79E2,5.01E2,8.1E1,1.011E3,9.81E2,1.924E3,1.568E3,9.31E2,1.862E3,8.86E2,4.72E2,6.04E2,3.47E2,5.97E2,3.82E2,4.17E2,8.4E1,6E1,2.1E1,9.86E2,2.5E1,4.6E1,9.35E2,7.7E2,1.154E3,1.331E3,2.37E2,5.69E2,3.62E2,1.732E3,1.3E2,8.78E2,8E0,3.93E2,7.9E1,2.55E2,3.49E2,7.7E1,2.7E2,3.93E2,2.04E2,2.7E2,1.12E2,3.68E2,4.9E1,2.1E1,6.3E1,8E0,5.2E1,1.11E2,8.75E2,1.8E1,7E0,3.5E1,1.1E1,2.58E2,6.77E2,6.98E2,7.2E1,5.68E2,5.86E2,2.63E2,1.068E3,2.32E2,5E0,3.84E2,1.85E2,3.55E2,7E0,5.91E2,1.141E3,2.9E1,1.01E2,6.18E2,2.6E2,1.72E2,2.21E2,6.5E1,1.4E1,7.6E1,1.79E2,3.36E2,1.3E1,2.5E1,5.2E1,1.5E1,2.55E2,1.62E2,2.31E2,1.7E2,3.4E1,7.4E1,1.96E2,1.3E1,9.9E1,1.31E2,2.37E2,3.4E1,1.5E1,1.4E1,7E0,1.9E1,4.4E1],"tree_param":{"num_deleted":"0","num_feature":"15","num_nodes":"115","size_leaf_vector":"1"}},{"base_weights":[5.2731354E-3,1.0302033E0,-2.6929026E0,1.6551595E0,2.9833567E-1,-1.6436806E0,-4.8484125E0,1.3463926E0,2.1387181E0,6.260843E-1,-1.3289772E-1,-1.2917848E0,-2.542995E0,-4.399179E0,-8.735022E0,1.734772E0,9.4913805E-1,2.4982464E0,1.8536642E0,3.762499E-1,1.2260917E0,6.1560683E-2,-6.7730975E-1,-6.9501466E-1,-1.5390012E0,-2.903926E0,-1.9022282E0,-3.8088784E0,-5.5138807E0,-7.6518846E0,-5.1464015E-1,2.2237213E0,1.5607437E0,1.9251643E0,8.735529E-1,2.7480006E0,2.275246E0,1.56515E0,2.726254E0,2.092224E-2,5.9958947E-1,1.006455E0,2.3816738E0,-8.413243E-2,1.2202902E0,-8.362103E-1,9.216582E-1,2.039762E0,-8.5170174E-1,-1.7721759E0,-8.879365E-1,-3.5644562E0,-2.343833E0,-1.6289897E0,-3.426515E0,-4.6414785E0,-3.4954276E0,-4.0168467E0,-5.856492E0,-2.2693875E-1,-7.9787574E0,9.518056E-2,1.451632E-1,6.2222745E-2,9.065044E-2,1.8771885E-1,8.192215E-2,4.190911E-2,9.958445E-2,1.309343E-1,1.8588936E-1,9.3601055E-2,1.23710565E-1,9.63428E-2,6.940039E-2,1.1036259E-1,2.0887645E-1,1.5095264E-1,-1.1235733E-3,2.6057875E-2,7.06415E-2,1.6862302E-1,4.7244463E-2,8.994018E-2,2.9150113E-1,-3.5286237E-2,4.912911E-3,8.0532126E-2,-1.9269551E-3,7.744825E-2,-4.4332456E-2,1.3188583E-1,1.1221046E-2,1.9352963E-2,1.9636635E-1,-4.7642455E-2,8.116075E-2,-7.267921E-2,-1.1433202E-1,-4.131745E-3,-6.5087676E-2,-2.15716E-1,-1.4925867E-1,-8.194212E-2,-1.3141279E-1,5.706511E-3,-8.471685E-2,-2.1607237E-1,-7.08676E-2,-1.6457203E-1,-2.4129374E-1,-1.4715077E-1,-2.046721E-1,-2.6717797E-1,-1.5903077E-1,-3.0467087E-1,-2.4948566E-1,-4.5998707E-1,-3.1831917E-1],"categories":[],"categories_nodes":[],"categories_segments":[],"categories_sizes":[],"default_left":[0,0,0,0,0,0,0,0,0,0,0,0,0,0,0,0,0,0,0,0,0,0,0,0,0,0,0,0,0,0,0,0,0,0,0,0,0,0,0,0,0,0,0,0,0,0,0,0,0,0,0,0,0,0,0,0,0,0,0,0,0,0,0,0,0,0,0,0,0,0,0,0,0,0,0,0,0,0,0,0,0,0,0,0,0,0,0,0,0,0,0,0,0,0,0,0,0,0,0,0,0,0,0,0,0,0,0,0,0,0,0,0,0,0,0,0,0,0,0],"id":14,"left_children":[1,3,5,7,9,11,13,15,17,19,21,23,25,27,29,31,33,35,37,39,41,43,45,47,49,51,53,55,57,59,-1,61,63,65,67,69,71,73,75,77,79,81,83,85,87,89,91,93,95,97,99,101,103,105,107,109,111,113,115,-1,117,-1,-1,-1,-1,-1,-1,-1,-1,-1,-1,-1,-1,-1,-1,-1,-1,-1,-1,-1,-1,-1,-1,-1,-1,-1,-1,-1,-1,-1,-1,-1,-1,-1,-1,-1,-1,-1,-1,-1,-1,-1,-1,-1,-1,-1,-1,-1,-1,-1,-1,-1,-1,-1,-1,-1,-1,-1,-1],"loss_changes":[3.349211E4,4.0137812E3,7.531584E3,7.035908E2,5.7169604E2,7.06479E2,1.8651387E3,4.442788E2,1.8381348E2,3.4385443E2,1.8505026E2,2.3696997E2,1.3969751E2,6.22916E2,1.08421875E2,1.2046924E2,1.0368152E2,3.8470215E1,2.551145E2,1.2880399E2,1.6858478E2,2.1765504E2,1.1763754E2,2.0515793E2,1.7137793E2,1.3940796E2,8.970618E1,1.510332E2,1.4833594E2,3.3765625E1,0E0,7.687085E1,8.368945E1,4.6805786E1,5.0687744E1,3.7034668E1,2.9832764E1,4.684326E1,1.8221057E2,8.20703E1,6.2662994E1,7.926489E1,2.0381354E2,1.2994174E2,7.097897E1,5.171515E1,4.9374825E1,7.9157616E1,1.1412869E2,1.3381763E2,1.0072803E2,6.544873E1,3.9379395E1,2.279126E1,5.4435303E1,2.637085E1,1.431748E2,5.5374878E1,2.4344727E1,0E0,6.1932617E1,0E0,0E0,0E0,0E0,0E0,0E0,0E0,0E0,0E0,0E0,0E0,0E0,0E0,0E0,0E0,0E0,0E0,0E0,0E0,0E0,0E0,0E0,0E0,0E0,0E0,0E0,0E0,0E0,0E0,0E0,0E0,0E0,0E0,0E0,0E0,0E0,0E0,0E0,0E0,0E0,0E0,0E0,0E0,0E0,0E0,0E0,0E0,0E0,0E0,0E0,0E0,0E0,0E0,0E0,0E0,0E0,0E0,0E0],"parents":[2147483647,0,0,1,1,2,2,3,3,4,4,5,5,6,6,7,7,8,8,9,9,10,10,11,11,12,12,13,13,14,14,15,15,16,16,17,17,18,18,19,19,20,20,21,21,22,22,23,23,24,24,25,25,26,26,27,27,28,28,29,29,31,31,32,32,33,33,34,34,35,35,36,36,37,37,38,38,39,39,40,40,41,41,42,42,43,43,44,44,45,45,46,46,47,47,48,48,49,49,50,50,51,51,52,52,53,53,54,54,55,55,56,56,57,57,58,58,60,60],"right_children":[2,4,6,8,10,12,14,16,18,20,22,24,26,28,30,32,34,36,38,40,42,44,46,48,50,52,54,56,58,60,-1,62,64,66,68,70,72,74,76,78,80,82,84,86,88,90,92,94,96,98,100,102,104,106,108,110,112,114,116,-1,118,-1,-1,-1,-1,-1,-1,-1,-1,-1,-1,-1,-1,-1,-1,-1,-1,-1,-1,-1,-1,-1,-1,-1,-1,-1,-1,-1,-1,-1,-1,-1,-1,-1,-1,-1,-1,-1,-1,-1,-1,-1,-1,-1,-1,-1,-1,-1,-1,-1,-1,-1,-1,-1,-1,-1,-1,-1,-1],"split_conditions":[7.7E0,3.3E0,1.41E1,-2E-1,5.2E0,1.16E1,2.45E1,2.1E0,1.8E0,7.2E0,2E1,-5E-1,8.192E-1,1.88E1,2.8E1,1E0,-7.071E-1,1.2E0,9E-1,-5E0,6.561E-1,1.52E1,9.3E0,-8.8E0,1.9E1,1.03E1,5E-1,1.66E2,2.91E1,-1.8E0,-5.1464015E-1,2.5E0,-8.4E0,1.04E2,1.07E1,6E0,2.7E0,2.3E0,8.988E-1,1.43E1,1.1E0,1.2E1,1E0,-2.7E0,1.1E1,4E0,6.9E0,-1E1,1.4E0,9.7E0,9.9E0,1E1,-1.8E0,6E0,1.4E0,1.44E1,1.66E1,9E-1,1.9E1,-2.2693875E-1,3.85E1,9.518056E-2,1.451632E-1,6.2222745E-2,9.065044E-2,1.8771885E-1,8.192215E-2,4.190911E-2,9.958445E-2,1.309343E-1,1.8588936E-1,9.3601055E-2,1.23710565E-1,9.63428E-2,6.940039E-2,1.1036259E-1,2.0887645E-1,1.5095264E-1,-1.1235733E-3,2.6057875E-2,7.06415E-2,1.6862302E-1,4.7244463E-2,8.994018E-2,2.9150113E-1,-3.5286237E-2,4.912911E-3,8.0532126E-2,-1.9269551E-3,7.744825E-2,-4.4332456E-2,1.3188583E-1,1.1221046E-2,1.9352963E-2,1.9636635E-1,-4.7642455E-2,8.116075E-2,-7.267921E-2,-1.1433202E-1,-4.131745E-3,-6.5087676E-2,-2.15716E-1,-1.4925867E-1,-8.194212E-2,-1.3141279E-1,5.706511E-3,-8.471685E-2,-2.1607237E-1,-7.08676E-2,-1.6457203E-1,-2.4129374E-1,-1.4715077E-1,-2.046721E-1,-2.6717797E-1,-1.5903077E-1,-3.0467087E-1,-2.4948566E-1,-4.5998707E-1,-3.1831917E-1],"split_indices":[0,0,0,2,0,0,0,0,0,7,3,12,10,0,0,0,12,0,1,2,9,7,2,2,7,2,12,5,7,2,0,7,2,5,7,7,7,0,10,13,1,5,1,2,3,5,7,2,1,0,0,3,1,3,1,0,0,1,3,0,7,0,0,0,0,0,0,0,0,0,0,0,0,0,0,0,0,0,0,0,0,0,0,0,0,0,0,0,0,0,0,0,0,0,0,0,0,0,0,0,0,0,0,0,0,0,0,0,0,0,0,0,0,0,0,0,0,0,0],"split_type":[0,0,0,0,0,0,0,0,0,0,0,0,0,0,0,0,0,0,0,0,0,0,0,0,0,0,0,0,0,0,0,0,0,0,0,0,0,0,0,0,0,0,0,0,0,0,0,0,0,0,0,0,0,0,0,0,0,0,0,0,0,0,0,0,0,0,0,0,0,0,0,0,0,0,0,0,0,0,0,0,0,0,0,0,0,0,0,0,0,0,0,0,0,0,0,0,0,0,0,0,0,0,0,0,0,0,0,0,0,0,0,0,0,0,0,0,0,0,0],"sum_hessian":[1.2109E4,8.776E3,3.333E3,4.733E3,4.043E3,2.243E3,1.09E3,2.891E3,1.842E3,2.297E3,1.746E3,1.614E3,6.29E2,9.79E2,1.11E2,1.46E3,1.431E3,8.11E2,1.031E3,1.623E3,6.74E2,1.287E3,4.59E2,4.74E2,1.14E3,4E2,2.29E2,6.43E2,3.36E2,6.9E1,4.2E1,3.8E2,1.08E3,1.01E2,1.33E3,3.77E2,4.34E2,7.77E2,2.54E2,6.27E2,9.96E2,5.68E2,1.06E2,1.144E3,1.43E2,4.18E2,4.1E1,2.5E1,4.49E2,8.38E2,3.02E2,1.81E2,2.19E2,1.96E2,3.3E1,1.72E2,4.71E2,6.5E1,2.71E2,8E0,6.1E1,2.61E2,1.19E2,4.82E2,5.98E2,1.2E1,8.9E1,1.291E3,3.9E1,3.36E2,4.1E1,1.47E2,2.87E2,2.52E2,5.25E2,1.89E2,6.5E1,8E0,6.19E2,9.1E2,8.6E1,1.3E1,5.55E2,9.2E1,1.4E1,2.59E2,8.85E2,1.09E2,3.4E1,8E0,4.1E2,1.1E1,3E1,1.4E1,1.1E1,4.32E2,1.7E1,5.2E2,3.18E2,1.03E2,1.99E2,7.6E1,1.05E2,6.5E1,1.54E2,7E0,1.89E2,2.2E1,1.1E1,2.3E1,1.49E2,2.48E2,2.23E2,2.3E1,4.2E1,2.08E2,6.3E1,3.2E1,2.9E1],"tree_param":{"num_deleted":"0","num_feature":"15","num_nodes":"119","size_leaf_vector":"1"}},{"base_weights":[4.3006553E-3,7.200516E-1,-3.4712143E0,1.3462201E0,-3.9255586E-1,-2.770143E0,-5.9103103E0,1.8188467E0,9.2823124E-1,-3.679097E-2,-1.0515844E0,-2.2070503E0,-3.5870616E0,-5.279062E0,-9.0705805E0,1.401197E0,2.1125548E0,4.8909965E-1,1.1899072E0,-6.287119E-2,3.7506697E0,-3.1681693E-1,-1.3239771E0,-2.4172199E0,-1.3950554E0,-4.7411804E0,-3.2649105E0,-4.9581695E0,-6.2053857E0,-6.741709E0,-9.738561E0,2.4630358E0,1.3346837E0,2.534668E0,1.9056832E0,7.018079E-1,2.1586885E-1,1.0010881E0,1.8783189E0,-4.832675E-1,9.28368E-2,2.7800241E-2,2.5715765E-1,-3.9955756E-1,1.8487635E-1,-8.3446974E-1,-1.5732247E0,-2.7019258E0,-1.835511E0,-1.5524907E-1,-1.7685808E0,-2.70495E-1,-4.0330853E0,-2.8062203E0,-3.7626064E0,-6.6474676E0,-4.723401E0,-1.4879324E-1,-6.3885455E0,-2.6649436E-1,-4.293983E-1,-5.1901406E-1,-3.5324052E-1,1.8466757E-1,1.0503302E-1,9.157538E-2,6.0098596E-2,1.7172883E-1,1.2125669E-1,9.2506446E-2,1.5282455E-1,2.919114E-2,4.8898116E-2,7.028378E-2,5.554418E-3,2.7057266E-2,5.713721E-2,8.472759E-2,3.264542E-1,3.2372184E-2,-3.294569E-2,-1.0741266E-3,3.6423113E-2,2.5549242E-2,-3.22447E-2,-7.043757E-2,-1.2341768E-2,3.6641958E-4,-8.305335E-2,-1.480546E-1,-1.1172827E-1,-7.840477E-2,-1.4658521E-1,2.8651832E-2,-8.041837E-2,-5.0920457E-2,-1.2619224E-1,-2.1511546E-1,-1.2362915E-1,-1.4768161E-1,-4.5295317E-2,-3.965455E-2,-1.9632827E-1,-3.7383988E-1,-1.797027E-1,-2.4843839E-1,-1.902869E-1,-3.3414927E-1,-2.2418895E-1],"categories":[],"categories_nodes":[],"categories_segments":[],"categories_sizes":[],"default_left":[0,0,0,0,0,0,0,0,0,0,0,0,0,0,0,0,0,0,0,0,0,0,0,0,0,0,0,0,0,0,0,0,0,0,0,0,0,0,0,0,0,0,0,0,0,0,0,0,0,0,0,0,0,0,0,0,0,0,0,0,0,0,0,0,0,0,0,0,0,0,0,0,0,0,0,0,0,0,0,0,0,0,0,0,0,0,0,0,0,0,0,0,0,0,0,0,0,0,0,0,0,0,0,0,0,0,0,0,0],"id":15,"left_children":[1,3,5,7,9,11,13,15,17,19,21,23,25,27,29,31,33,35,37,39,41,43,45,47,49,51,53,55,57,59,61,63,65,67,69,71,73,75,77,79,81,-1,-1,83,-1,85,87,89,91,93,95,-1,97,99,101,103,105,-1,107,-1,-1,-1,-1,-1,-1,-1,-1,-1,-1,-1,-1,-1,-1,-1,-1,-1,-1,-1,-1,-1,-1,-1,-1,-1,-1,-1,-1,-1,-1,-1,-1,-1,-1,-1,-1,-1,-1,-1,-1,-1,-1,-1,-1,-1,-1,-1,-1,-1,-1],"loss_changes":[3.0007693E4,6.9695103E3,3.5053203E3,1.2625723E3,8.44609E2,7.284248E2,8.6634766E2,3.650586E2,3.8982935E2,2.3110583E2,2.5219995E2,1.585415E2,2.2613379E2,8.255762E1,4.9370605E1,8.412134E1,1.4850146E2,7.3625275E1,2.745703E2,1.5234167E2,6.774678E1,1.1507478E2,1.10816284E2,1.1946094E2,9.1226654E1,4.352954E1,1.05896484E2,8.2873535E1,3.6246826E1,4.967041E0,2.1005371E1,2.376233E1,7.477026E1,4.7861572E1,6.967822E1,2.253653E1,6.92572E1,1.0821533E2,3.7869226E2,1.2535039E2,1.2347029E2,0E0,0E0,7.562509E1,0E0,1.05114105E2,8.4730835E1,5.3910156E1,6.853076E1,5.076459E1,8.319525E1,0E0,1.8933716E1,7.285327E1,1.14725586E2,5.5586426E1,3.8530273E1,0E0,1.8832764E1,0E0,0E0,0E0,0E0,0E0,0E0,0E0,0E0,0E0,0E0,0E0,0E0,0E0,0E0,0E0,0E0,0E0,0E0,0E0,0E0,0E0,0E0,0E0,0E0,0E0,0E0,0E0,0E0,0E0,0E0,0E0,0E0,0E0,0E0,0E0,0E0,0E0,0E0,0E0,0E0,0E0,0E0,0E0,0E0,0E0,0E0,0E0,0E0,0E0,0E0],"parents":[2147483647,0,0,1,1,2,2,3,3,4,4,5,5,6,6,7,7,8,8,9,9,10,10,11,11,12,12,13,13,14,14,15,15,16,16,17,17,18,18,19,19,20,20,21,21,22,22,23,23,24,24,25,25,26,26,27,27,28,28,29,29,30,30,31,31,32,32,33,33,34,34,35,35,36,36,37,37,38,38,39,39,40,40,43,43,45,45,46,46,47,47,48,48,49,49,50,50,52,52,53,53,54,54,55,55,56,56,58,58],"right_children":[2,4,6,8,10,12,14,16,18,20,22,24,26,28,30,32,34,36,38,40,42,44,46,48,50,52,54,56,58,60,62,64,66,68,70,72,74,76,78,80,82,-1,-1,84,-1,86,88,90,92,94,96,-1,98,100,102,104,106,-1,108,-1,-1,-1,-1,-1,-1,-1,-1,-1,-1,-1,-1,-1,-1,-1,-1,-1,-1,-1,-1,-1,-1,-1,-1,-1,-1,-1,-1,-1,-1,-1,-1,-1,-1,-1,-1,-1,-1,-1,-1,-1,-1,-1,-1,-1,-1,-1,-1,-1,-1],"split_conditions":[1.07E1,4.6E0,1.85E1,2.4E0,7.7E0,1.41E1,